tree
version=v3
num_class=5
num_tree_per_iteration=5
label_index=0
max_feature_idx=47
objective=multiclass num_class:5
average_output
feature_names=average_day_max_mean_magn average_day_min_mean_magn average_day_mean_max_magn average_day_mean_min_magn average_mean_magn average_max_magn average_min_magn average_max_min_magn average_lastday_mean_magn average_lastday_max_magn average_lastday_min_magn average_lastday_max_min_magn diff_1_day_max_mean_magn diff_1_day_min_mean_magn diff_1_day_mean_max_magn diff_1_day_mean_min_magn diff_1_mean_magn diff_1_max_magn diff_1_min_magn diff_1_max_min_magn diff_1_lastday_mean_magn diff_1_lastday_max_magn diff_1_lastday_min_magn diff_1_lastday_max_min_magn average_day_max_mean_sound average_day_min_mean_sound average_day_mean_max_sound average_day_mean_min_sound average_mean_sound average_max_sound average_min_sound average_max_min_sound average_lastday_mean_sound average_lastday_max_sound average_lastday_min_sound average_lastday_max_min_sound diff_1_day_max_mean_sound diff_1_day_min_mean_sound diff_1_day_mean_max_sound diff_1_day_mean_min_sound diff_1_mean_sound diff_1_max_sound diff_1_min_sound diff_1_max_min_sound diff_1_lastday_mean_sound diff_1_lastday_max_sound diff_1_lastday_min_sound diff_1_lastday_max_min_sound
feature_infos=[4.2293580483209787:7.8437116197495493] [-2.0459352521552154:1.4673809054638329] [-0.79243631653415314:4.8264681971304997] [-1.8038595214540405:3.0685136137971663] [-0.86071535219364692:3.6716214213368485] [4.7154909054638336:7.9006209054638337] [-2.0464654378695002:0.84191090546383363] [6.5826089999999988:9.9139879999999998] [-1.8038595214540405:4.14263291935272] [2.1501409054638336:7.8619909054638342] [-2.0458632012028333:2.3686309054638337] [3.576550000000001:9.8746492000000003] [0.46805857142857149:7.0568177142857138] [-6.7770742857142841:-0.59787285714285709] [0.00017173846970179398:0.023920536585365856] [-0.02019805902777776:-0.00027504601571268146] [-0.0022749999999999953:0.0020509443339960199] [0.59399999999999986:9.3750103333333339] [-9.3431382500000009:-1.4695800000000006] [2.0635800000000004:17.798867866666672] [-0.010615138888888894:0.023920536585365856] [0.34963999999999995:8.9184990000000006] [-8.300849666666668:-0.29031999999999991] [0.63995999999999986:16.295584166666668] [-0.091311039339434422:2.7630952606605703] [-0.093740167910863079:-0.079949325053720197] [-0.091937098032390821:0.10572964581015844] [-0.092018433640029637:0.038954936666992589] [-0.091981026831458437:0.068061242502299002] [-0.09119451791086304:2.8357488320891369] [-0.093740167910863023:-0.079990367910863031] [0.0014243699999999945:2.9294889999999998] [-0.091937098032390821:0.10572964581015844] [-0.09119451791086304:2.803187832089137] [-0.093740167910863023:-0.079892167910863024] [0.0014243699999999945:2.8969279999999999] [4.4811428571430089e-05:0.44831673809523831] [-0.3844749761904761:-4.7528571428572181e-05] [-8.177974965229496e-06:0.0012592449165446556] [-0.00099913021834992862:3.118402777777798e-06] [-0.00014421465383204939:0.00011336230309972756] [6.6280000000001893e-05:2.0147274850000003] [-2.0519254550000001:-7.6400000000004242e-05] [0.00014268000000000614:4.0666529400000009] [-0.00029044290044247771:0.00064124428314120971] [4.0789999999998876e-05:1.0257256666666668] [-1.2339160000000002:-3.961000000000936e-05] [8.0400000000008243e-05:2.0686257500000003]
tree_sizes=1116 946 652 538 351 1297 740 652 544 349 1119 854 545 444 348 1062 743 545 546 348 1144 852 552 539 352 1109 740 552 544 352 1230 838 548 444 348 1234 748 652 447 348 1098 642 549 552 348 1011 644 551 553 348 1211 849 543 544 347 1154 749 544 541 347 1031 740 546 537 346 1027 850 649 548 346 1133 749 546 533 349 1208 855 548 545 349 1113 750 548 545 351 949 757 550 447 351 1031 745 554 548 348 1119 746 545 547 349 1027 855 546 542 352 1010 749 546 542 352 1024 755 543 447 351 1221 741 543 545 351 1046 752 556 544 350 1009 849 550 543 350 1146 851 547 545 351 1031 846 547 546 351 893 753 550 441 348 1025 745 550 546 348 1105 741 552 449 350 1045 740 552 544 349 1228 750 652 545 350

Tree=0
num_leaves=10
num_cat=0
split_feature=14 5 12 12 12 23 6 22 34
split_gain=21.2601 29.191 22.333 14.888 17.9389 6.27589 2.30235 4.41287 0.724849
threshold=0.0017229909426440353 7.6521709054638345 6.4288520714285786 4.8553966428571522 5.4652069785714357 10.051791166666668 -2.0343912762028324 -5.2189634999999983 -0.093518218827529684
decision_type=2 2 2 2 2 2 2 2 2
left_child=2 -2 -1 6 -5 -6 8 -8 -3
right_child=1 3 -4 4 5 -7 7 -9 -10
leaf_value=0.89622973465966649 0.88621789880513402 -2.2825240957795576 -1.9691328436423827 0.88111024518262904 -2.2657065473145632 -0.58372468815872947 -2.2558711948968626 -0.69314718055994529 -1.682394492387902
leaf_weight=12.187499999999998 6.2499999999999991 12.187499999999995 3.4374999999999991 4.9999999999999991 4.6874999999999982 4.0625 3.4375 3.7500000000000044 3.4375000000000009
leaf_count=39 20 39 11 16 15 13 11 12 11
internal_value=-0.693147 -1.10026 0.260601 -1.44289 -0.624307 -1.48292 -1.93754 -1.44617 -2.15726
internal_weight=0 42.8125 15.625 36.5625 13.75 8.75 22.8125 7.1875 15.625
internal_count=187 137 50 117 44 28 73 23 50
is_linear=0
shrinkage=1


Tree=1
num_leaves=8
num_cat=0
split_feature=3 18 5 32 45 47 26
split_gain=32.0003 20.4226 18.7891 23.0973 7.62604 4.27491 10.6618
threshold=-0.20720301884078207 -5.5942161666666683 7.8439975721305011 0.016148289747957342 0.040141865000000013 0.054470805555555772 -0.065837164178224147
decision_type=2 2 2 2 2 2 2
left_child=-1 2 3 4 5 6 -2
right_child=1 -3 -4 -5 -6 -7 -8
leaf_value=-2.4232401788263029 1.662400288670091 -2.41012363685787 -2.3983091047464056 -2.3933180007750101 -0.67054447325561917 1.6968648443495866 -1.2043576525026063
leaf_weight=18.74683803319931 2.8841289281845093 5.5279137790203086 3.3648170828819266 2.8841289281845084 3.3648170828819266 5.7682578563690186 2.4034407734870999
leaf_count=78 12 23 14 12 14 24 10
internal_value=-1.34807 -0.714172 -0.256722 0.164404 0.681248 1.08326 0.382249
internal_weight=0 26.1975 20.6696 17.3048 14.4206 11.0558 5.28757
internal_count=187 109 86 72 60 46 22
is_linear=0
shrinkage=1


Tree=2
num_leaves=5
num_cat=0
split_feature=38 44 1 2
split_gain=63.6715 37.5651 10.8749 0.956144
threshold=5.524999999999992e-06 -5.2897910835378614e-06 -2.0318879594171189 -1.0000000180025095e-35
decision_type=2 2 2 2
left_child=1 3 -2 -1
right_child=2 -3 -4 -5
leaf_value=4.285532490418773 -0.11463542763992463 -2.9587899127746073 -3.0234370808454862 2.2899983421464869
leaf_weight=1.453356862068176 1.3212335109710718 1.3212335109710718 19.157885909080505 1.4533568620681765
leaf_count=11 10 10 145 11
internal_value=-2.11918 1.41191 -2.82891 3.39611
internal_weight=0 4.22795 20.4791 2.90671
internal_count=187 32 155 22
is_linear=0
shrinkage=1


Tree=3
num_leaves=4
num_cat=0
split_feature=3 23 21
split_gain=71.6396 86.382 0.775434
threshold=-0.4177822038639849 9.4063630000000042 4.8300028333333342
decision_type=2 2 2
left_child=1 2 -1
right_child=-2 -3 -4
leaf_value=3.203450847404461 -3.1795236107779266 -3.1514815906551501 5.3962012926063316
leaf_weight=1.3577858805656462 15.388239979743956 2.7155717611312866 1.6972323507070539
leaf_count=12 136 24 15
internal_value=-2.29611 0.936701 4.542
internal_weight=0 5.77059 3.05502
internal_count=187 51 27
is_linear=0
shrinkage=1


Tree=4
num_leaves=2
num_cat=0
split_feature=39
split_gain=33.2246
threshold=-0.00016422573546852069
decision_type=2
left_child=-1
right_child=-2
leaf_value=4.4832765693384671 -4.7322653059313975
leaf_weight=0.38202056288719166 4.0828447658568621
leaf_count=16 171
internal_value=-3.93834
internal_weight=0
internal_count=187
is_linear=0
shrinkage=1


Tree=5
num_leaves=12
num_cat=0
split_feature=3 9 0 37 41 15 36 25 8 37 3
split_gain=16.9444 20.1894 18.5163 15.1628 17.732 4.15136 10.4669 3.69228 0.94377 0.490244 0.481711
threshold=-0.7231826093264494 7.5782074054638349 7.5913295483209779 -0.13754198214285704 0.61508325000000019 -0.0090011354120357271 0.044880464575963681 -0.093531598631101123 0.056360924963388639 -0.19995836119047608 -0.74482323992706989
decision_type=2 2 2 2 2 2 2 2 2 2 2
left_child=10 -2 5 4 9 -3 -7 -5 -8 -4 -1
right_child=1 2 3 7 -6 6 8 -9 -10 -11 -12
leaf_value=-1.6823944923879022 0.89153617731928858 -2.2689047563175198 -1.6222810388276616 0.89258670147023345 0.86590793755029061 -0.17332339201368974 -2.2637686494864995 -0.39393458213474908 -1.532052955635933 -2.2589366542441565 -2.2674046063025197
leaf_weight=3.4375 8.4374999999999982 5.3125000000000027 3.125 9.0624999999999947 3.125 5.6249999999999991 4.3749999999999982 3.1250000000000062 4.0625 3.7499999999999982 4.9999999999999982
leaf_count=11 27 17 10 29 10 18 14 10 13 12 16
internal_value=-0.693147 -0.514326 -0.800086 -0.178251 -1.08618 -1.51425 -1.22105 0.569366 -1.92437 -1.98557 -2.04219
internal_weight=0 50 41.5625 22.1875 10 19.375 14.0625 12.1875 8.4375 6.875 8.4375
internal_count=187 160 133 71 32 62 45 39 27 22 27
is_linear=0
shrinkage=1


Tree=6
num_leaves=6
num_cat=0
split_feature=23 9 11 34 3
split_gain=34.2797 31.0139 33.747 10.7498 4.62957
threshold=13.397471650000004 7.7082200721305014 9.746118233333334 -0.093521867244196352 -0.024447732795900224
decision_type=2 2 2 2 2
left_child=1 -1 3 -3 -2
right_child=4 2 -4 -5 -6
leaf_value=-2.4246605762979399 -0.19992752620437804 1.6899246263765113 -2.4108940940228925 -0.67054447325561917 1.6676642508957114
leaf_weight=25.236128121614456 2.6437848508358002 4.8068815469741812 5.7682578563690177 3.3648170828819266 3.1244730055332175
leaf_count=105 11 20 24 14 13
internal_value=-1.34807 -1.7633 -0.57001 0.73408 0.837501
internal_weight=0 39.1761 13.94 8.1717 5.76826
internal_count=187 163 58 34 24
is_linear=0
shrinkage=1


Tree=7
num_leaves=5
num_cat=0
split_feature=38 44 6 2
split_gain=63.6715 37.5651 10.8749 0.956144
threshold=5.524999999999992e-06 -5.2897910835378614e-06 -2.0456900795361661 -1.0000000180025095e-35
decision_type=2 2 2 2
left_child=1 3 -2 -1
right_child=2 -3 -4 -5
leaf_value=4.285532490418773 -0.11463542763992463 -2.9587899127746073 -3.0234370808454862 2.2899983421464869
leaf_weight=1.453356862068176 1.3212335109710718 1.3212335109710718 19.157885909080505 1.4533568620681765
leaf_count=11 10 10 145 11
internal_value=-2.11918 1.41191 -2.82891 3.39611
internal_weight=0 4.22795 20.4791 2.90671
internal_count=187 32 155 22
is_linear=0
shrinkage=1


Tree=8
num_leaves=4
num_cat=0
split_feature=29 33 28
split_gain=61.7392 68.3624 19.6484
threshold=2.5850783320891373 2.5182823320891372 0.037492832059884316
decision_type=2 2 2
left_child=2 -2 -1
right_child=1 -3 -4
leaf_value=-3.1797399414498377 5.0264923454238062 -3.1348598266316494 1.0416324417335381
leaf_weight=15.953984096646314 2.2629764676094046 1.8103811740875242 1.1314882338047016
leaf_count=141 20 16 10
internal_value=-2.29611 1.42091 -2.88834
internal_weight=0 4.07336 17.0855
internal_count=187 36 151
is_linear=0
shrinkage=1


Tree=9
num_leaves=2
num_cat=0
split_feature=38
split_gain=37.8057
threshold=0.00037821244712165009
decision_type=2
left_child=-1
right_child=-2
leaf_value=-4.7325162458948595 5.6312121230009309
leaf_weight=4.130597336217761 0.33426799252629269
leaf_count=173 14
internal_value=-3.93834
internal_weight=0
internal_count=187
is_linear=0
shrinkage=1


Tree=10
num_leaves=10
num_cat=0
split_feature=45 18 25 36 36 12 44 44 2
split_gain=20.9096 19.7466 17.0732 23.3724 8.95273 5.17554 2.5428 4.25931 0.140998
threshold=0.046022391000000135 -5.2536508333333343 -0.09360539545848208 0.044880464575963681 0.046031180190476188 4.876786083333335 1.4516364803872562e-06 -1.1911903828198014e-06 0.037121505782851033
decision_type=2 2 2 2 2 2 2 2 2
left_child=1 2 3 -1 -5 6 7 -4 -7
right_child=-2 -3 5 4 -6 8 -8 -9 -10
leaf_value=0.89095067876727152 0.89031863819999113 0.88394533045327039 -2.0824245698373343 -2.2689047563175211 -0.3870785789768319 -0.99235977898514216 -2.2793540771116692 -0.69314718055994529 -0.69314718055994529
leaf_weight=8.1249999999999982 7.8124999999999991 5.6249999999999991 5.3125 5.3124999999999982 4.6875 3.1249999999999991 9.3749999999999982 3.7500000000000089 3.125
leaf_count=26 25 18 17 17 15 10 30 12 10
internal_value=-0.693147 -0.867419 -1.10026 -0.365774 -1.38469 -1.6411 -1.90748 -1.51071 -0.843941
internal_weight=0 48.4375 42.8125 18.125 10 24.6875 18.4375 9.0625 6.25
internal_count=180 155 137 58 32 79 59 29 20
is_linear=0
shrinkage=1


Tree=11
num_leaves=7
num_cat=0
split_feature=24 13 42 40 1 29
split_gain=24.4586 29.3789 26.8174 18.4253 2.79937 2.59811
threshold=-0.045456925053720142 -6.4191725571428497 -0.99604304499999985 -5.9370426750933102e-07 -2.0228808419171194 -0.045296117910863021
decision_type=2 2 2 2 2 2
left_child=5 -2 3 4 -3 -1
right_child=1 2 -4 -5 -6 -7
leaf_value=-0.19992752620437804 1.3215836257768665 0.018414921356206815 -2.4250176967572488 -2.3901544765799234 1.648778353167957 1.2849721004188142
leaf_weight=2.6437848508358002 2.8841289281845084 2.4034407734870911 27.639568895101551 2.6437848508357957 2.4034407734870911 2.6437848508357993
leaf_count=11 12 10 115 11 10 11
internal_value=-1.34807 -1.71597 -1.9705 -0.295093 0.866351 0.5696
internal_weight=0 37.9744 35.0902 7.45067 4.80688 5.28757
internal_count=180 158 146 31 20 22
is_linear=0
shrinkage=1


Tree=12
num_leaves=4
num_cat=0
split_feature=38 0 1
split_gain=49.6508 37.0037 24.4186
threshold=5.524999999999992e-06 7.5891961197495492 -2.0338651740599762
decision_type=2 2 2
left_child=1 -1 -2
right_child=2 -3 -4
leaf_value=3.5589116776340148 1.3439053345248859 -2.9587899127746091 -3.0233323620552306
leaf_weight=2.3782203197479279 1.3212335109710718 1.3212335109710691 18.761515855789185
leaf_count=18 10 10 142
internal_value=-2.11918 1.23767 -2.72564
internal_weight=0 3.69945 20.0827
internal_count=180 28 152
is_linear=0
shrinkage=1


Tree=13
num_leaves=3
num_cat=0
split_feature=3 22
split_gain=46.1773 78.5716
threshold=-0.4177822038639849 -3.9018232500000001
decision_type=2 2
left_child=1 -1
right_child=-2 -3
leaf_value=-3.148437136268122 -3.1797813851091354 5.411775724327029
leaf_weight=2.4892741143703461 16.067132920026779 1.8103811740875269
leaf_count=22 142 16
internal_value=-2.29611 0.491539
internal_weight=0 4.29966
internal_count=180 38
is_linear=0
shrinkage=1


Tree=14
num_leaves=2
num_cat=0
split_feature=36
split_gain=68.1757
threshold=0.20740473559523817
decision_type=2
left_child=-1
right_child=-2
leaf_value=-4.7318778312319614 10.076570814067573
leaf_weight=4.0112159103155136 0.28651542216539372
leaf_count=168 12
internal_value=-3.93834
internal_weight=0
internal_count=180
is_linear=0
shrinkage=1


Tree=15
num_leaves=9
num_cat=0
split_feature=14 14 14 13 26 3 39 8
split_gain=23.1458 20.1373 19.3488 23.2718 7.47249 5.7858 5.21553 0.806198
threshold=0.0046588209950169648 0.0020808927835807615 0.0017229909426440353 -6.1271872738095192 -0.0058053586027319295 -0.65683231052078928 -5.2820255379341437e-06 -0.10090929020393626
decision_type=2 2 2 2 2 2 2 2
left_child=1 2 3 -1 -4 -6 -2 -3
right_child=6 7 4 -5 5 -7 -8 -9
leaf_value=-1.995778759507314 -2.1732532813557013 0.23598667770777082 -2.2743746173830508 0.8943075842168936 -1.9372416687489231 -0.23627072368348895 -0.80256967296116111 0.89430758421689427
leaf_weight=3.7499999999999991 9.3749999999999982 3.1250000000000009 6.8749999999999956 10.312500000000002 3.1249999999999956 5.3125000000000062 4.0624999999999991 10.312499999999996
leaf_count=12 30 10 22 33 10 17 13 33
internal_value=-0.693147 -0.262701 -0.725433 0.11819 -1.50356 -0.863987 -1.76451 0.748929
internal_weight=0 42.8125 29.375 14.0625 15.3125 8.4375 13.4375 13.4375
internal_count=180 137 94 45 49 27 43 43
is_linear=0
shrinkage=1


Tree=16
num_leaves=6
num_cat=0
split_feature=9 13 44 33 5
split_gain=28.9518 40.6243 20.8151 9.3749 5.481
threshold=7.7082200721305014 -6.4191725571428497 -2.4059418010987285e-06 1.3603598320891372 7.8419309054638342
decision_type=2 2 2 2 2
left_child=1 -1 -2 4 -4
right_child=2 -3 3 -5 -6
leaf_value=1.6561970070746115 -2.4003123738095296 -2.4246993145594775 1.5063560557174573 -1.1674520825976227 -0.22241330476651155
leaf_weight=2.6437848508357993 3.6051611602306375 25.476472198963169 5.287569701671595 3.1244730055332193 3.1244730055332184
leaf_count=11 15 106 22 13 13
internal_value=-1.34807 -2.0346 -0.322093 0.333405 0.880596
internal_weight=0 28.1203 15.1417 11.5365 8.41204
internal_count=180 117 63 48 35
is_linear=0
shrinkage=1


Tree=17
num_leaves=4
num_cat=0
split_feature=2 30 1
split_gain=46.1969 29.8728 24.5106
threshold=-0.56013394245418002 -0.081573267910863015 -2.0355036403695004
decision_type=2 2 2
left_child=-1 2 -2
right_child=1 -3 -4
leaf_value=3.5317164777721013 1.343905334524877 2.0731757156073023 -3.0236023272505248
leaf_weight=1.3212335109710718 1.3212335109710753 1.3212335109710682 19.81850266456604
leaf_count=10 10 10 150
internal_value=-2.11918 -2.44667 -2.74075
internal_weight=0 22.461 21.1397
internal_count=180 170 160
is_linear=0
shrinkage=1


Tree=18
num_leaves=4
num_cat=0
split_feature=11 27 2
split_gain=44.8538 20.7481 29.876
threshold=7.3554796000000007 0.018947450228775062 -0.37129518643905718
decision_type=2 2 2
left_child=-1 -2 -3
right_child=1 2 -4
leaf_value=3.5808028640977532 -3.179980170864984 -3.1235258387841647 3.5808028640977709
leaf_weight=1.1314882338047052 16.632877036929134 1.4709347039461138 1.1314882338047016
leaf_count=10 147 13 10
internal_value=-2.29611 -2.76592 -0.171615
internal_weight=0 19.2353 2.60242
internal_count=180 170 23
is_linear=0
shrinkage=1


Tree=19
num_leaves=2
num_cat=0
split_feature=36
split_gain=68.1757
threshold=0.20740473559523817
decision_type=2
left_child=-1
right_child=-2
leaf_value=-4.7318778312319614 10.076570814067573
leaf_weight=4.0112159103155136 0.28651542216539372
leaf_count=168 12
internal_value=-3.93834
internal_weight=0
internal_count=180
is_linear=0
shrinkage=1


Tree=20
num_leaves=10
num_cat=0
split_feature=47 17 33 36 30 26 27 21 47
split_gain=20.8262 20.2202 16.5374 10.1182 34.5759 6.29816 4.3587 1.08467 0.0211313
threshold=0.10271083333333365 5.2865349999999998 2.5182823320891372 0.044880464575963681 -0.093740167910417685 -0.0022726731963689409 -0.061045630931696314 5.9127566666666684 0.039528333333333283
decision_type=2 2 2 2 2 2 2 2 2
left_child=1 -1 3 4 -3 -5 7 -6 -7
right_child=-2 2 -4 5 6 8 -8 -9 -10
leaf_value=0.88394533045327039 0.88963427639369697 0.88963427639369697 0.87264229312426533 -0.88126599244113324 -2.2751851771057141 -1.9372416687489218 -0.69314718055994529 -1.5858025477915836 -2.2806019453367847
leaf_weight=5.6249999999999991 7.4999999999999991 7.4999999999999991 3.7499999999999991 5.0000000000000027 7.1874999999999982 3.1249999999999991 3.1250000000000027 4.375 10.312499999999998
leaf_count=18 24 24 12 16 23 10 10 14 33
internal_value=-0.693147 -0.891948 -1.11971 -1.30655 -0.848291 -1.85339 -1.74149 -2.02361 -2.20937
internal_weight=0 50 44.375 40.625 22.1875 18.4375 14.6875 11.5625 13.4375
internal_count=184 160 142 130 71 59 47 37 43
is_linear=0
shrinkage=1


Tree=21
num_leaves=7
num_cat=0
split_feature=3 38 18 9 40 2
split_gain=34.9639 22.1633 22.0327 13.4886 7.50695 25.688
threshold=-0.024447732795900224 1.0037687448470356e-05 -5.5046714999999997 7.7306725721305005 -2.1106150733406264e-06 0.96936279906512146
decision_type=2 2 2 2 2 2
left_child=3 -2 4 -1 -3 -6
right_child=1 2 -4 -5 5 -7
leaf_value=-2.4240290485502518 -2.4036204234493814 1.5407837920953911 -2.390154476579923 -0.22241330476651111 -2.3901544765799216 1.6761153933575572
leaf_weight=21.871311038732532 4.0858493149280575 6.2489460110664368 2.6437848508357975 3.1244730055332175 2.6437848508358002 3.6051611602306366
leaf_count=91 17 26 11 13 11 15
internal_value=-1.34807 -0.35361 0.204512 -2.14513 0.759333 -0.0467834
internal_weight=0 19.2275 15.1417 24.9958 12.4979 6.24895
internal_count=184 80 63 104 52 26
is_linear=0
shrinkage=1


Tree=22
num_leaves=4
num_cat=0
split_feature=38 44 1
split_gain=44.7016 32.5063 16.9921
threshold=5.524999999999992e-06 -5.2897910835378614e-06 -2.0338651740599762
decision_type=2 2 2
left_child=1 -1 -2
right_child=2 -3 -4
leaf_value=3.147087438718728 0.61463495344248065 -2.9587899127746073 -3.0234710332453494
leaf_weight=2.3782203197479252 1.3212335109710718 1.3212335109710718 19.290009260177612
leaf_count=18 10 10 146
internal_value=-2.11918 0.970965 -2.78179
internal_weight=0 3.69945 20.6112
internal_count=184 28 156
is_linear=0
shrinkage=1


Tree=23
num_leaves=4
num_cat=0
split_feature=3 22 0
split_gain=79.858 64.7559 1.22031
threshold=-0.4177822038639849 -3.9018232500000001 7.5521927626066949
decision_type=2 2 2
left_child=1 -1 -3
right_child=-2 2 -4
leaf_value=-3.1348598266316494 -3.1798222509224829 2.9894283065895508 5.3784700205594742
leaf_weight=1.8103811740875242 16.180281743407249 1.2446370571851759 1.5840835273265836
leaf_count=16 143 11 14
internal_value=-2.29611 1.50491 4.45472
internal_weight=0 4.6391 2.82872
internal_count=184 41 25
is_linear=0
shrinkage=1


Tree=24
num_leaves=2
num_cat=0
split_feature=38
split_gain=3.18207
threshold=0.00031315570410286918
decision_type=2
left_child=-1
right_child=-2
leaf_value=-4.7326395783269222 -1.3230634598738806
leaf_weight=4.1544736213982105 0.23876285180449475
leaf_count=174 10
internal_value=-3.93834
internal_weight=0
internal_count=184
is_linear=0
shrinkage=1


Tree=25
num_leaves=10
num_cat=0
split_feature=18 46 13 7 37 16 9 10 15
split_gain=27.1288 19.1999 11.244 23.7414 13.7509 16.0383 10.2065 1.09452 2.82888
threshold=-5.2956486499999995 -0.075389166666666715 -4.7016914071428584 9.7091322362222225 -0.059026581606575826 -0.00037350953603098978 7.5860404054638346 -1.9855246278694996 -0.0012772765433074721
decision_type=2 2 2 2 2 2 2 2 2
left_child=1 -1 4 -4 6 -6 -3 8 -5
right_child=-2 2 3 7 5 -7 -8 -9 -10
leaf_value=0.88111024518262904 0.89305971599177869 -2.272512259925024 0.8659079375502875 -0.99235977898514205 -1.6823944923879022 0.89031863819999202 -0.078973952213488796 -2.2822457130547043 -2.2637686494864977
leaf_weight=4.9999999999999991 9.3749999999999982 6.2500000000000018 3.1250000000000062 3.125 3.4375 7.8124999999999947 3.125 11.874999999999998 4.3750000000000027
leaf_count=16 30 20 10 10 11 25 10 38 14
internal_value=-0.693147 -0.961959 -1.17838 -1.66654 -0.647198 0.0988882 -1.53665 -2.08053 -1.74613
internal_weight=0 48.125 43.125 22.5 20.625 11.25 9.375 19.375 7.5
internal_count=184 154 138 72 66 36 30 62 24
is_linear=0
shrinkage=1


Tree=26
num_leaves=6
num_cat=0
split_feature=23 9 11 44 7
split_gain=49.1408 25.0042 25.028 26.426 1.45917
threshold=13.397471650000004 7.7082200721305014 9.746118233333334 1.4770721153847065e-06 9.6733310350000021
decision_type=2 2 2 2 2
left_child=1 -1 3 -3 -2
right_child=4 2 -4 -5 -6
leaf_value=-2.4244552876383483 1.6676642508957114 -2.3863711417808409 -2.4092837942508529 1.5249920854432999 0.58177236883360095
leaf_weight=24.034407734870911 3.1244730055332175 2.4034407734870893 5.2875697016715995 5.7682578563690186 3.6051611602306366
leaf_count=100 13 10 22 24 15
internal_value=-1.34807 -1.81338 -0.725941 0.369191 1.11183
internal_weight=0 37.4937 13.4593 8.1717 6.72963
internal_count=184 156 56 34 28
is_linear=0
shrinkage=1


Tree=27
num_leaves=4
num_cat=0
split_feature=30 44 1
split_gain=32.7755 52.9266 13.8222
threshold=-0.093683578659863015 -4.3818636997459667e-06 -2.0137968820361665
decision_type=2 2 2
left_child=-1 -2 -3
right_child=1 2 -4
leaf_value=-3.0225508823655902 3.5024413407618518 0.61463495344248598 -3.0073904278870431
leaf_weight=16.251172184944156 2.2460969686508179 1.3212335109710691 4.492193937301634
leaf_count=123 17 10 34
internal_value=-2.11918 -0.562731 -2.15938
internal_weight=0 8.05952 5.81343
internal_count=184 61 44
is_linear=0
shrinkage=1


Tree=28
num_leaves=4
num_cat=0
split_feature=9 8 10
split_gain=48.3552 51.6966 27.0465
threshold=7.474253405463835 -0.34968508674015669 -2.0353659795361656
decision_type=2 2 2
left_child=1 -1 -2
right_child=2 -3 -4
leaf_value=5.3784700205594724 0.64555318723451727 -3.1126679500800027 -3.1797399414498382
leaf_weight=1.5840835273265841 2.0366788208484694 1.2446370571851755 15.953984096646305
leaf_count=14 18 11 141
internal_value=-2.29611 1.67571 -2.73696
internal_weight=0 2.82872 17.9907
internal_count=184 25 159
is_linear=0
shrinkage=1


Tree=29
num_leaves=2
num_cat=0
split_feature=38
split_gain=3.18207
threshold=0.00031315570410286918
decision_type=2
left_child=-1
right_child=-2
leaf_value=-4.7326395783269222 -1.3230634598738806
leaf_weight=4.1544736213982105 0.23876285180449475
leaf_count=174 10
internal_value=-3.93834
internal_weight=0
internal_count=184
is_linear=0
shrinkage=1


Tree=30
num_leaves=11
num_cat=0
split_feature=18 45 15 33 9 14 16 5 44 3
split_gain=24.076 21.1413 14.8765 7.06081 15.4264 11.8816 4.34348 2.5096 1.99893 0.806198
threshold=-5.2956486499999995 0.046022391000000135 -0.00090330450083066433 1.4870214987558044 7.6588359054638344 0.0018908440235187057 -0.00049751903280056172 7.740311322130502 -1.0000000180025095e-35 -0.13256912849056199
decision_type=2 2 2 2 2 2 2 2 2 2
left_child=1 2 3 6 5 8 -1 -6 -5 -8
right_child=-2 -3 -4 4 7 -7 9 -9 -10 -11
leaf_value=-0.99921578214305851 0.89031863819999113 0.8826103951976304 0.86590793755029105 -2.278881062590123 0.86957683377697237 -0.17599678478158109 -1.6222810388276607 -0.39393458213474852 -1.307320408906401 -2.2806019453367852
leaf_weight=4.6875000000000027 7.8124999999999991 5.3124999999999991 3.1249999999999991 9.0625 3.4374999999999991 4.6874999999999991 3.1250000000000027 3.125 3.1250000000000044 10.312499999999995
leaf_count=15 25 17 10 29 11 15 10 10 10 33
internal_value=-0.693147 -0.991848 -1.21732 -1.37684 -1.01034 -1.51737 -1.84583 0.282278 -2.03738 -2.13522
internal_weight=0 50 44.6875 41.5625 23.4375 16.875 18.125 6.5625 12.1875 13.4375
internal_count=185 160 143 133 75 54 58 21 39 43
is_linear=0
shrinkage=1


Tree=31
num_leaves=7
num_cat=0
split_feature=3 21 9 11 41 11
split_gain=42.1146 25.6726 23.9125 30.3916 4.14769 2.36089
threshold=-0.20720301884078207 6.4749295000000009 7.7082200721305014 9.746118233333334 0.2487918399999999 9.6050477316666676
decision_type=2 2 2 2 2 2
left_child=-1 2 -2 4 -4 -3
right_child=1 5 3 -5 -6 -7
leaf_value=-2.4230949261083681 -2.4153354197652752 1.682602071562737 0.092599621177192892 -2.4020684483110792 1.6853110302523053 0.40761254712089579
leaf_weight=18.266149878501892 7.6910104751586976 4.0858493149280539 3.1244730055332166 3.8455052375793457 4.3261933922767639 3.1244730055332184
leaf_count=76 32 17 13 16 18 13
internal_value=-1.34807 -0.44748 -1.06281 -0.136897 1.03812 1.15289
internal_weight=0 26.1975 18.9872 11.2962 7.45067 7.21032
internal_count=185 109 79 47 31 30
is_linear=0
shrinkage=1


Tree=32
num_leaves=4
num_cat=0
split_feature=4 6 30
split_gain=53.6811 28.0347 10.9149
threshold=-0.6498521298301948 -2.0457990766194989 -0.084357337910863014
decision_type=2 2 2
left_child=-1 -2 -3
right_child=1 2 -4
leaf_value=3.6203544409946682 1.624820292722386 -3.0236963036837068 -0.11463542763991397
leaf_weight=1.4533568620681787 1.4533568620681787 20.214872717857368 1.3212335109710647
leaf_count=11 11 153 10
internal_value=-2.11918 -2.54682 -2.83868
internal_weight=0 22.9895 21.5361
internal_count=185 174 163
is_linear=0
shrinkage=1


Tree=33
num_leaves=3
num_cat=0
split_feature=3 22
split_gain=60.321 77.8114
threshold=-0.4177822038639849 -3.9018232500000001
decision_type=2 2
left_child=1 -1
right_child=-2 -3
leaf_value=-3.148437136268122 -3.1797399414498377 4.6884481130909812
leaf_weight=2.4892741143703461 15.953984096646307 2.4892741143703487
leaf_count=22 141 22
internal_value=-2.29611 0.790549
internal_weight=0 4.97855
internal_count=185 44
is_linear=0
shrinkage=1


Tree=34
num_leaves=2
num_cat=0
split_feature=38
split_gain=12.7967
threshold=0.00037821244712165009
decision_type=2
left_child=-1
right_child=-2
leaf_value=-4.732761517912893 2.1399858426952054
leaf_weight=4.17834990657866 0.23876285180449475
leaf_count=175 10
internal_value=-3.93834
internal_weight=0
internal_count=185
is_linear=0
shrinkage=1


Tree=35
num_leaves=11
num_cat=0
split_feature=19 33 47 22 22 38 14 2 14 38
split_gain=19.6799 18.7258 15.3593 9.51182 15.3448 10.7408 8.92967 7.91448 2.0188 1.40171
threshold=10.761361000000003 2.5182823320891372 0.1473492983333333 -3.9018232500000001 -4.5700335000000001 1.2325485667564682e-05 0.0025263247055345114 0.50072277524820297 0.0020646479107855869 7.9060357174451608e-06
decision_type=2 2 2 2 2 2 2 2 2 2
left_child=-1 2 3 4 5 6 9 -7 -5 -2
right_child=1 -3 -4 8 -6 7 -8 -9 -10 -11
leaf_value=0.88719308409033826 -1.5320529556359319 0.88111024518262904 0.86957683377697237 -1.3073204089064014 0.87264229312426533 0.86957683377697237 -0.6179906043595278 -1.3073204089064019 -2.2793540771116692 -2.2802118571768606
leaf_weight=6.5624999999999991 4.0625000000000062 4.9999999999999991 3.4374999999999991 3.1250000000000027 3.7499999999999991 3.4374999999999991 5.9374999999999991 3.125 9.3749999999999982 9.9999999999999982
leaf_count=21 13 16 11 10 12 11 19 10 30 32
internal_value=-0.693147 -0.945584 -1.14563 -1.31024 -1.00439 -1.2737 -1.63828 -0.171408 -2.04374 -2.07136
internal_weight=0 51.25 46.25 42.8125 30.3125 26.5625 20 6.5625 12.5 14.0625
internal_count=185 164 148 137 97 85 64 21 40 45
is_linear=0
shrinkage=1


Tree=36
num_leaves=6
num_cat=0
split_feature=23 38 9 42 3
split_gain=53.5553 36.6295 32.4973 5.41381 1.26409
threshold=13.397471650000004 4.8307823889103374e-05 7.7082200721305014 -1.1702826666666668 -0.024447732795900224
decision_type=2 2 2 2 2
left_child=1 3 -3 -1 -2
right_child=4 2 -4 -5 -6
leaf_value=-0.94237733951597369 0.63995029999041386 -2.3983091047464056 1.5160755700968045 -2.4247746430944765 1.682602071562737
leaf_weight=2.6437848508357993 2.8841289281845093 3.3648170828819257 5.5279137790203094 25.957160353660587 4.0858493149280539
leaf_count=11 12 14 23 108 17
internal_value=-1.34807 -1.73348 0.031775 -2.28553 1.27552
internal_weight=0 37.4937 8.89273 28.6009 6.96998
internal_count=185 156 37 119 29
is_linear=0
shrinkage=1


Tree=37
num_leaves=5
num_cat=0
split_feature=38 8 8 16
split_gain=44.3844 39.0879 7.66228 5.14075
threshold=1.0037687448470356e-05 -0.28661391110838247 0.18480071613389001 0.00018248253184404846
decision_type=2 2 2 2
left_child=1 3 -3 -1
right_child=-2 2 -4 -5
leaf_value=1.2489062488003846 -3.0229490203160649 -2.9946104845999035 -0.11463542763992063 4.2609868588545172
leaf_weight=1.5854802131652832 17.440282344818115 2.7745903730392483 1.3212335109710691 1.3212335109710693
leaf_count=12 132 21 10 10
internal_value=-2.11918 -0.051399 -2.06468 2.71968
internal_weight=0 7.00254 4.09582 2.90671
internal_count=185 53 31 22
is_linear=0
shrinkage=1


Tree=38
num_leaves=3
num_cat=0
split_feature=3 46
split_gain=60.321 77.8114
threshold=-0.4177822038639849 -0.021949833333332995
decision_type=2 2
left_child=1 -1
right_child=-2 -3
leaf_value=4.6884481130909883 -3.1797399414498377 -3.1484371362681212
leaf_weight=2.4892741143703461 15.953984096646307 2.4892741143703487
leaf_count=22 141 22
internal_value=-2.29611 0.790549
internal_weight=0 4.97855
internal_count=185 44
is_linear=0
shrinkage=1


Tree=39
num_leaves=2
num_cat=0
split_feature=38
split_gain=12.7967
threshold=0.00037821244712165009
decision_type=2
left_child=-1
right_child=-2
leaf_value=-4.732761517912893 2.1399858426952054
leaf_weight=4.17834990657866 0.23876285180449475
leaf_count=175 10
internal_value=-3.93834
internal_weight=0
internal_count=185
is_linear=0
shrinkage=1


Tree=40
num_leaves=10
num_cat=0
split_feature=3 23 38 23 11 10 3 10 3
split_gain=19.5962 14.5391 20.9558 19.6015 6.51883 11.9458 3.39678 0.86389 0.374949
threshold=-0.7231826093264494 13.397471650000004 3.3651139947764694e-05 8.7082501666666694 9.7312666533333338 -2.0023879445361659 0.1756952484108702 -2.0246770028694994 -0.74482323992706989
decision_type=2 2 2 2 2 2 2 2 2
left_child=8 2 4 6 7 -6 -4 -2 -1
right_child=1 -3 3 -5 5 -7 -8 -9 -10
leaf_value=-1.7326208647704715 0.23598667770777138 -1.7963217837345486 -1.1500236374364023 0.87264229312426533 0.87524187719081425 -1.5320529556359332 -2.271435280768713 0.89698564676453196 -2.2657065473145632
leaf_weight=3.75 3.1249999999999991 6.2499999999999991 5.3124999999999982 3.7499999999999991 4.0625 4.0624999999999982 5.9375 13.125000000000005 4.6874999999999982
leaf_count=12 10 20 17 12 13 13 19 42 15
internal_value=-0.693147 -0.387728 -0.161758 -1.0885 0.410231 -0.332291 -1.75067 0.776178 -2.04219
internal_weight=0 45.625 39.375 15 24.375 8.125 11.25 16.25 8.4375
internal_count=173 146 126 48 78 26 36 52 27
is_linear=0
shrinkage=1


Tree=41
num_leaves=5
num_cat=0
split_feature=23 9 11 11
split_gain=34.112 31.8241 29.2797 9.20819
threshold=13.397471650000004 7.7082200721305014 9.746118233333334 9.7312666533333338
decision_type=2 2 2 2
left_child=1 -1 3 -3
right_child=-2 2 -4 -5
leaf_value=-2.4244552876383483 1.0722443184686614 -0.51257065569035509 -2.4073547500258368 1.6853110302523053
leaf_weight=24.034407734870911 4.8068815469741812 3.6051611602306348 4.8068815469741821 4.3261933922767639
leaf_count=100 20 15 20 18
internal_value=-1.34807 -1.74702 -0.473538 0.704031
internal_weight=0 36.7726 12.7382 7.93135
internal_count=173 153 53 33
is_linear=0
shrinkage=1


Tree=42
num_leaves=4
num_cat=0
split_feature=4 25 1
split_gain=62.9574 10.1684 2.47919
threshold=-0.6498521298301948 -0.081691055053720152 -2.0318879594171189
decision_type=2 2 2
left_child=-1 2 -2
right_child=1 -3 -4
leaf_value=3.6946710512089682 -1.7010699543980856 -0.1146354276399193 -3.0232600629453503
leaf_weight=1.5854802131652856 1.4533568620681823 1.3212335109710682 18.497269153594971
leaf_count=12 11 10 140
internal_value=-2.11918 -2.74253 -2.92364
internal_weight=0 21.2719 19.9506
internal_count=173 161 151
is_linear=0
shrinkage=1


Tree=43
num_leaves=4
num_cat=0
split_feature=9 40 40
split_gain=67.6764 29.0572 57.5497
threshold=2.8828109054638342 3.5443467721245371e-06 5.0493900255909114e-06
decision_type=2 2 2
left_child=-1 -2 -3
right_child=1 2 -4
leaf_value=5.2735831456739017 -3.1791926707199996 4.7006101216341882 -3.1467019296998369
leaf_weight=1.1314882338047052 14.596198216080667 1.4709347039461129 2.3761252909898758
leaf_count=10 129 13 21
internal_value=-2.29611 -2.53165 -0.107816
internal_weight=0 18.4433 3.84706
internal_count=173 163 34
is_linear=0
shrinkage=1


Tree=44
num_leaves=2
num_cat=0
split_feature=36
split_gain=24.3461
threshold=0.20740473559523817
decision_type=2
left_child=-1
right_child=-2
leaf_value=-4.7309182888861052 4.1333068405197144
leaf_weight=3.8440819140523672 0.28651542216539372
leaf_count=161 12
internal_value=-3.93834
internal_weight=0
internal_count=173
is_linear=0
shrinkage=1


Tree=45
num_leaves=9
num_cat=0
split_feature=18 45 36 33 12 27 31 1
split_gain=20.7192 16.6525 14.2358 30.2099 7.14161 4.93541 10.3969 0.705461
threshold=-5.2956486499999995 0.047007849583333546 0.044880464575963681 -0.035882417910863017 5.0093831821428676 0.014171372574482767 1.564059166666667 -2.0166724264409255
decision_type=2 2 2 2 2 2 2 2
left_child=1 2 3 4 -1 6 -4 -5
right_child=-2 -3 5 7 -6 -7 -8 -9
leaf_value=-2.1549208808657556 0.88963427639369697 0.87941218619467232 -2.2657065473145619 0.23598667770777104 -0.39393458213474858 -2.1841001359278582 -0.23627072368348845 0.88889081598582298
leaf_weight=8.1249999999999982 7.4999999999999991 4.6874999999999991 4.6875000000000018 3.125 3.1250000000000009 10.312499999999998 5.3125 7.1875
leaf_count=26 24 15 15 10 10 33 17 23
internal_value=-0.693147 -0.895882 -1.09744 -0.533517 -1.66217 -1.69744 -1.18568 0.701304
internal_weight=0 46.5625 41.875 21.5625 11.25 20.3125 10 10.3125
internal_count=173 149 134 69 36 65 32 33
is_linear=0
shrinkage=1


Tree=46
num_leaves=5
num_cat=0
split_feature=23 9 45 7
split_gain=34.112 31.8241 22.7899 11.8201
threshold=13.397471650000004 7.7082200721305014 0.021976700000000095 9.7720689650000025
decision_type=2 2 2 2
left_child=1 -1 -3 -4
right_child=-2 2 3 -5
leaf_value=-2.4244552876383483 1.0722443184686614 -2.4036204234493823 1.4840311904072283 -0.88750234738595912
leaf_weight=24.034407734870911 4.8068815469741812 4.0858493149280539 4.8068815469741804 3.8455052375793457
leaf_count=100 20 17 20 16
internal_value=-1.34807 -1.74702 -0.473538 0.444464
internal_weight=0 36.7726 12.7382 8.65239
internal_count=173 153 53 36
is_linear=0
shrinkage=1


Tree=47
num_leaves=4
num_cat=0
split_feature=26 25 1
split_gain=38.8909 10.1102 2.47015
threshold=0.048637031911443092 -0.081691055053720152 -2.0318879594171189
decision_type=2 2 2
left_child=1 2 -1
right_child=-2 -3 -4
leaf_value=-1.7010699543980856 1.4997904830575588 -0.1146354276399193 -3.0230302529884203
leaf_weight=1.4533568620681823 2.3782203197479239 1.3212335109710682 17.704529047012333
leaf_count=11 18 10 134
internal_value=-2.11918 -2.73149 -2.91931
internal_weight=0 20.4791 19.1579
internal_count=173 155 145
is_linear=0
shrinkage=1


Tree=48
num_leaves=4
num_cat=0
split_feature=3 40 40
split_gain=67.6764 29.0572 57.5497
threshold=-1.3903903084568199 3.5443467721245371e-06 5.0493900255909114e-06
decision_type=2 2 2
left_child=-1 -2 -3
right_child=1 2 -4
leaf_value=5.2735831456739017 -3.1791926707199996 4.7006101216341882 -3.1467019296998369
leaf_weight=1.1314882338047052 14.596198216080667 1.4709347039461129 2.3761252909898758
leaf_count=10 129 13 21
internal_value=-2.29611 -2.53165 -0.107816
internal_weight=0 18.4433 3.84706
internal_count=173 163 34
is_linear=0
shrinkage=1


Tree=49
num_leaves=2
num_cat=0
split_feature=36
split_gain=24.3461
threshold=0.20740473559523817
decision_type=2
left_child=-1
right_child=-2
leaf_value=-4.7309182888861052 4.1333068405197144
leaf_weight=3.8440819140523672 0.28651542216539372
leaf_count=161 12
internal_value=-3.93834
internal_weight=0
internal_count=173
is_linear=0
shrinkage=1


Tree=50
num_leaves=11
num_cat=0
split_feature=18 45 35 37 14 12 16 41 22 4
split_gain=22.6788 24.0997 16.9449 12.0997 18.4 10.67 10.35 4.11352 2.47793 5.03664
threshold=-5.2956486499999995 0.046022391000000135 2.6120223813930235 -0.054075930523809421 0.0017229909426440353 4.8553966428571522 -0.00021173741134987653 0.62819333333333349 -3.9018232500000001 1.204189572025842
decision_type=2 2 2 2 2 2 2 2 2 2
left_child=1 2 3 7 -5 8 -7 -1 9 -6
right_child=-2 -3 -4 4 5 6 -8 -9 -10 -11
leaf_value=-2.2841350488441741 0.8888908159858232 0.8851409196488228 0.86957683377697237 0.8774742883666059 -0.56411492249542916 -1.6222810388276616 0.86957683377697237 -0.99235977898514216 -2.2751851771057132 -2.2558711948968626
leaf_weight=14.374999999999998 7.1874999999999991 5.9374999999999991 3.4374999999999991 4.3750000000000062 3.4375000000000009 3.125 3.4374999999999991 3.1249999999999991 7.1875000000000009 3.4375
leaf_count=46 23 19 11 14 11 10 11 10 23 11
internal_value=-0.693147 -1.00032 -1.24656 -1.42053 -0.970592 -1.36788 -0.322637 -2.05782 -1.85878 -1.40795
internal_weight=0 51.875 45.9375 42.5 25 20.625 6.5625 17.5 14.0625 6.875
internal_count=189 166 147 136 80 66 21 56 45 22
is_linear=0
shrinkage=1


Tree=51
num_leaves=7
num_cat=0
split_feature=9 12 38 39 9 29
split_gain=39.5282 33.6689 21.8556 12.9778 26.9116 0.490608
threshold=7.7082200721305014 6.4288520714285786 7.9060357174451608e-06 -8.8313216516622675e-06 7.7155054887971684 -0.045296117910863021
decision_type=2 2 2 2 2 2
left_child=1 -1 -2 4 -4 -5
right_child=2 -3 3 5 -6 -7
leaf_value=-2.424811272705484 -2.3983091047464042 1.2849721004188142 1.6624002886700902 0.83359663726208111 -2.4003123738095296 1.685311030252308
leaf_weight=26.197504431009296 3.3648170828819302 2.6437848508357993 2.8841289281845102 2.403440773487092 3.6051611602306366 4.3261933922767604
leaf_count=109 14 11 12 10 15 18
internal_value=-1.34807 -2.07905 -0.144019 0.435364 -0.593096 1.40684
internal_weight=0 28.8413 16.5837 13.2189 6.48929 6.72963
internal_count=189 120 69 55 27 28
is_linear=0
shrinkage=1


Tree=52
num_leaves=4
num_cat=0
split_feature=4 5 6
split_gain=71.9681 22.1846 15.4752
threshold=-0.54748500226253094 7.8507509054638351 -2.0457990766194989
decision_type=2 2 2
left_child=-1 2 -2
right_child=1 -3 -4
leaf_value=4.3061122518111157 0.29446419387419231 1.3439053345248948 -3.0237866743856912
leaf_weight=1.5854802131652856 1.4533568620681823 1.3212335109710682 20.611242771148682
leaf_count=12 11 10 156
internal_value=-2.11918 -2.55497 -2.798
internal_weight=0 23.3858 22.0646
internal_count=189 177 167
is_linear=0
shrinkage=1


Tree=53
num_leaves=4
num_cat=0
split_feature=3 24 27
split_gain=67.4224 60.0774 10.5752
threshold=-0.4177822038639849 1.6328125106605664 0.018947450228775062
decision_type=2 2 2
left_child=1 -1 -3
right_child=-2 2 -4
leaf_value=-3.1426960112057287 -3.1797813851091354 1.4131580372189667 5.3962012926063316
leaf_weight=2.1498276442289379 16.067132920026779 1.4709347039461138 1.6972323507070539
leaf_count=19 142 13 15
internal_value=-2.29611 0.911692 3.64883
internal_weight=0 5.31799 3.16817
internal_count=189 47 28
is_linear=0
shrinkage=1


Tree=54
num_leaves=2
num_cat=0
split_feature=40
split_gain=85.4184
threshold=2.904557138532761e-05
decision_type=2
left_child=-1
right_child=-2
leaf_value=-4.732761517912893 10.835913071290264
leaf_weight=4.17834990657866 0.33426799252629269
leaf_count=175 14
internal_value=-3.93834
internal_weight=0
internal_count=189
is_linear=0
shrinkage=1


Tree=55
num_leaves=10
num_cat=0
split_feature=18 45 24 42 25 20 41 37 15
split_gain=22.6788 24.0997 15.265 13.0174 28.8942 5.10851 3.23657 1.75227 1.47924
threshold=-5.2956486499999995 0.046022391000000135 2.542214046374855 -0.078840567166666639 -0.093531598631101123 0.00051401261444722465 0.62819333333333349 -0.049602958730158554 -0.0054914753133468814
decision_type=2 2 2 2 2 2 2 2 2
left_child=1 2 3 6 -5 -6 7 -1 -7
right_child=-2 -3 -4 4 5 8 -8 -9 -10
leaf_value=-2.2841350488441732 0.8888908159858232 0.8851409196488228 0.86590793755029105 0.88719308409033826 -0.56411492249542938 -2.1600102144332887 -0.99235977898514216 -1.4694629700336299 -1.3073204089064017
leaf_weight=14.375000000000004 7.1874999999999991 5.9374999999999991 3.1249999999999991 6.5624999999999991 3.4375000000000062 8.4374999999999964 3.1249999999999991 3.7499999999999973 3.1250000000000009
leaf_count=46 23 19 10 21 11 27 10 12 10
internal_value=-0.693147 -1.00032 -1.24656 -1.40356 -0.852777 -1.62006 -1.95841 -2.12093 -1.9375
internal_weight=0 51.875 45.9375 42.8125 21.5625 15 21.25 18.125 11.5625
internal_count=189 166 147 137 69 48 68 58 37
is_linear=0
shrinkage=1


Tree=56
num_leaves=6
num_cat=0
split_feature=26 42 18 43 18
split_gain=32.8285 32.6016 28.4582 9.45374 5.24503
threshold=-0.065522186348363029 -0.99604304499999985 -8.5010728499999981 1.6530527500000003 -7.3675199999999981
decision_type=2 2 2 2 2
left_child=4 3 -3 -2 -1
right_child=1 2 -4 -5 -6
leaf_value=1.6676642508957105 1.6624002886700919 0.72262547306460223 -2.4252616544944958 -0.78615641182134455 -0.22241330476651111
leaf_weight=3.1244730055332184 2.8841289281845084 3.1244730055332139 29.562321513891224 3.6051611602306366 3.1244730055332175
leaf_count=13 12 13 123 15 13
internal_value=-1.34807 -1.71231 -2.12013 0.324435 0.747
internal_weight=0 39.1761 32.6868 6.48929 6.24895
internal_count=189 163 136 27 26
is_linear=0
shrinkage=1


Tree=57
num_leaves=4
num_cat=0
split_feature=2 1 1
split_gain=71.9681 22.1846 17.0746
threshold=-0.49858942002065071 -1.6306277731075951 -2.0355036403695004
decision_type=2 2 2
left_child=-1 2 -2
right_child=1 -3 -4
leaf_value=4.3061122518111157 0.61463495344247354 1.3439053345248948 -3.0238160323190879
leaf_weight=1.5854802131652856 1.3212335109710753 1.3212335109710682 20.743366122245789
leaf_count=12 10 10 157
internal_value=-2.11918 -2.55497 -2.798
internal_weight=0 23.3858 22.0646
internal_count=189 177 167
is_linear=0
shrinkage=1


Tree=58
num_leaves=4
num_cat=0
split_feature=3 22 4
split_gain=67.4224 71.447 6.28403
threshold=-0.4177822038639849 -3.9018232500000001 -0.17663297132694442
decision_type=2 2 2
left_child=1 -1 -3
right_child=-2 2 -4
leaf_value=-3.1467019296998369 -3.1797813851091354 1.8880225825216113 5.411775724327029
leaf_weight=2.3761252909898758 16.067132920026779 1.131488233804703 1.8103811740875269
leaf_count=21 142 10 16
internal_value=-2.29611 0.911692 4.16577
internal_weight=0 5.31799 2.94187
internal_count=189 47 26
is_linear=0
shrinkage=1


Tree=59
num_leaves=2
num_cat=0
split_feature=40
split_gain=85.4184
threshold=2.904557138532761e-05
decision_type=2
left_child=-1
right_child=-2
leaf_value=-4.732761517912893 10.835913071290264
leaf_weight=4.17834990657866 0.33426799252629269
leaf_count=175 14
internal_value=-3.93834
internal_weight=0
internal_count=189
is_linear=0
shrinkage=1


Tree=60
num_leaves=9
num_cat=0
split_feature=14 5 44 14 14 6 13 19
split_gain=20.9226 27.0184 24.4496 11.5924 24.3178 7.62782 5.2097 2.60922
threshold=0.0017229909426440353 7.6521709054638345 -4.4797856726361652e-05 0.0020808927835807615 0.0046588209950169648 -2.0099254295361657 -3.8547236809523779 12.439665083333333
decision_type=2 2 2 2 2 2 2 2
left_child=2 -2 -1 7 5 -5 -6 -3
right_child=1 3 -4 4 6 -7 -8 -9
leaf_value=-1.9957787595073126 0.8851409196488228 -2.2819523474060155 0.89649425370300284 0.88719308409033804 -2.1771009674662354 -0.99235977898514194 -0.69314718055994529 -1.4363622118751853
leaf_weight=3.7500000000000027 5.9374999999999991 11.562500000000002 12.499999999999998 6.5625 9.6874999999999982 3.1250000000000018 3.1249999999999991 5.9374999999999991
leaf_count=12 19 37 40 21 31 10 10 19
internal_value=-0.693147 -1.09434 0.224031 -1.39102 -0.912659 0.277328 -1.81657 -2.00084
internal_weight=0 45.9375 16.25 40 22.5 9.6875 12.8125 17.5
internal_count=199 147 52 128 72 31 41 56
is_linear=0
shrinkage=1


Tree=61
num_leaves=6
num_cat=0
split_feature=23 9 45 24 7
split_gain=37.3476 32.5732 32.9022 7.66415 3.69936
threshold=13.397471650000004 7.7082200721305014 0.021976700000000095 1.432223879708185 9.6331718500000019
decision_type=2 2 2 2 2
left_child=1 -1 -3 -4 -2
right_child=4 2 3 -5 -6
leaf_value=-2.4249513199461257 1.6561970070746115 -2.41012363685787 1.4957199534183416 -0.53742623071021522 0.085747304167881566
leaf_weight=27.158880740404129 2.6437848508357993 5.5279137790203086 5.0472256243228895 3.1244730055332184 4.3261933922767639
leaf_count=113 11 23 21 13 18
internal_value=-1.34807 -1.79067 -0.537519 0.73408 0.705713
internal_weight=0 40.8585 13.6996 8.1717 6.96998
internal_count=199 170 57 34 29
is_linear=0
shrinkage=1


Tree=62
num_leaves=4
num_cat=0
split_feature=4 25 6
split_gain=65.6646 62.3697 33.3878
threshold=-0.6498521298301948 -0.079952232196577308 -2.0457990766194989
decision_type=2 2 2
left_child=-1 2 -2
right_child=1 -3 -4
leaf_value=3.8122925735741156 1.4949269269733976 4.2609868588545226 -3.0239573980022403
leaf_weight=1.8497269153594995 1.7176035642623961 1.3212335109710682 21.403982877731323
leaf_count=14 13 10 162
internal_value=-2.11918 -2.2896 -2.67904
internal_weight=0 24.4428 23.1216
internal_count=199 185 175
is_linear=0
shrinkage=1


Tree=63
num_leaves=4
num_cat=0
split_feature=3 46 17
split_gain=42.2745 65.2187 6.09205
threshold=-0.4177822038639849 -0.022650999999999529 7.400385
decision_type=2 2 2
left_child=1 2 -1
right_child=-2 -3 -4
leaf_value=1.7827802662396404 -3.1800559606420622 -3.1552162084455539 5.3066800498471824
leaf_weight=1.3577858805656435 16.859174683690071 3.0550182312727001 1.2446370571851728
leaf_count=12 149 27 11
internal_value=-2.29611 -0.0328335 3.59852
internal_weight=0 5.65744 2.60242
internal_count=199 50 23
is_linear=0
shrinkage=1


Tree=64
num_leaves=2
num_cat=0
split_feature=32
split_gain=116.7
threshold=0.038685483490420967
decision_type=2
left_child=-1
right_child=-2
leaf_value=-4.734334668453962 15.992183052971551
leaf_weight=4.5126178991049528 0.23876285180449475
leaf_count=189 10
internal_value=-3.93834
internal_weight=0
internal_count=199
is_linear=0
shrinkage=1


Tree=65
num_leaves=9
num_cat=0
split_feature=14 5 13 14 14 6 13 19
split_gain=20.9226 27.0184 22.0168 11.5924 24.3178 7.62782 5.2097 2.60922
threshold=0.0017229909426440353 7.6521709054638345 -6.4191725571428497 0.0020808927835807615 0.0046588209950169648 -2.0099254295361657 -3.8547236809523779 12.439665083333333
decision_type=2 2 2 2 2 2 2 2
left_child=2 -2 -1 7 5 -5 -6 -3
right_child=1 3 -4 4 6 -7 -8 -9
leaf_value=-1.7752140498608564 0.8851409196488228 -2.2819523474060155 0.89622973465966649 0.88719308409033804 -2.1771009674662354 -0.99235977898514194 -0.69314718055994529 -1.4363622118751853
leaf_weight=4.0625000000000027 5.9374999999999991 11.562500000000002 12.187499999999998 6.5625 9.6874999999999982 3.1250000000000018 3.1249999999999991 5.9374999999999991
leaf_count=13 19 37 39 21 31 10 10 19
internal_value=-0.693147 -1.09434 0.224031 -1.39102 -0.912659 0.277328 -1.81657 -2.00084
internal_weight=0 45.9375 16.25 40 22.5 9.6875 12.8125 17.5
internal_count=199 147 52 128 72 31 41 56
is_linear=0
shrinkage=1


Tree=66
num_leaves=7
num_cat=0
split_feature=23 42 40 12 7 12
split_gain=37.3476 34.8953 24.967 9.44863 3.69936 0.966177
threshold=13.397471650000004 -0.99604304499999985 -5.9370426750933102e-07 3.0701478571428589 9.6331718500000019 4.7105447166666776
decision_type=2 2 2 2 2 2
left_child=1 2 5 -3 -2 -1
right_child=4 3 -4 -5 -6 -7
leaf_value=0.63995029999041386 1.6561970070746115 -0.38917593659673044 -2.3933180007750101 -2.4252899395924903 0.085747304167881566 1.662400288670091
leaf_weight=2.8841289281845093 2.6437848508357993 2.4034407734870902 2.8841289281845075 29.802665591239929 4.3261933922767639 2.8841289281845093
leaf_count=12 11 10 12 124 18 12
internal_value=-1.34807 -1.79067 -0.0151801 -2.27054 0.705713 1.18125
internal_weight=0 40.8585 8.65239 32.2061 6.96998 5.76826
internal_count=199 170 36 134 29 24
is_linear=0
shrinkage=1


Tree=67
num_leaves=5
num_cat=0
split_feature=38 1 44 2
split_gain=73.5261 39.5184 38.9832 2.00116
threshold=5.524999999999992e-06 -2.0355036403695004 -5.2897910835378614e-06 -1.0000000180025095e-35
decision_type=2 2 2 2
left_child=2 -2 3 -1
right_child=1 -3 -4 -5
leaf_value=4.3236154556597954 2.2899983421464807 -3.023634066598007 -2.9587899127746073 2.2331182559176259
leaf_weight=1.7176035642623899 1.4533568620681787 19.950626015663147 1.3212335109710718 1.8497269153594973
leaf_count=13 11 151 10 14
internal_value=-2.11918 -2.65107 1.6279 3.32862
internal_weight=0 21.404 4.88856 3.56733
internal_count=199 162 37 27
is_linear=0
shrinkage=1


Tree=68
num_leaves=4
num_cat=0
split_feature=27 40 11
split_gain=32.911 64.8967 19.793
threshold=0.018947450228775062 3.5443467721245371e-06 9.1006544700000003
decision_type=2 2 2
left_child=2 -2 -1
right_child=1 -3 -4
leaf_value=1.0416324417335181 -3.1426960112057301 5.3581005385172293 -3.1803398644494516
leaf_weight=1.1314882338047088 2.1498276442289348 1.4709347039461134 17.764365270733833
leaf_count=10 19 13 157
internal_value=-2.29611 0.354351 -2.91675
internal_weight=0 3.62076 18.8959
internal_count=199 32 167
is_linear=0
shrinkage=1


Tree=69
num_leaves=2
num_cat=0
split_feature=32
split_gain=116.7
threshold=0.038685483490420967
decision_type=2
left_child=-1
right_child=-2
leaf_value=-4.734334668453962 15.992183052971551
leaf_weight=4.5126178991049528 0.23876285180449475
leaf_count=189 10
internal_value=-3.93834
internal_weight=0
internal_count=199
is_linear=0
shrinkage=1


Tree=70
num_leaves=10
num_cat=0
split_feature=35 27 36 47 0 16 27 12 3
split_gain=19.0472 26.2057 28.3938 21.3085 5.54872 5.36128 3.00561 2.24058 0.507552
threshold=1.4541000000000002 0.014171372574482767 0.044880464575963681 0.0030622000000000015 7.5727696197495478 -0.00030303983171262153 -0.014659271276168194 5.6104469523809595 -0.53201544565455239
decision_type=2 2 2 2 2 2 2 2 2
left_child=3 5 -3 -1 -5 -2 -6 -7 -4
right_child=1 2 8 4 6 7 -8 -9 -10
leaf_value=0.86957683377697081 -0.69314718055994529 0.87941218619467099 -2.2702396915731606 -2.2813155537112531 -0.69314718055994529 0.89784068772428294 -1.9372416687489222 -0.078973952213488574 -1.770391439432597
leaf_weight=3.4375000000000027 3.1250000000000027 4.6875000000000027 5.6250000000000009 10.937500000000002 5 14.375000000000002 3.1249999999999982 3.1249999999999991 5.9374999999999973
leaf_count=11 10 15 18 35 16 46 10 10 19
internal_value=-0.693147 -0.234109 -1.18088 -1.40046 -1.81545 0.513624 -1.17633 0.728505 -2.02361
internal_weight=0 36.875 16.25 22.5 19.0625 20.625 8.125 17.5 11.5625
internal_count=190 118 52 72 61 66 26 56 37
is_linear=0
shrinkage=1


Tree=71
num_leaves=6
num_cat=0
split_feature=23 38 4 11 13
split_gain=35.6657 43.3762 29.9806 5.79267 3.40289
threshold=13.397471650000004 4.8307823889103374e-05 0.32585886981636675 9.6182318666666689 -5.6210812619047603
decision_type=2 2 2 2 2
left_child=1 4 -3 -2 -1
right_child=3 2 -4 -5 -6
leaf_value=-1.2043576525026058 1.4408137582910487 -2.3933180007750101 1.5249920854432999 -0.37770301043900067 -2.4249513199461257
leaf_weight=2.4034407734870902 4.0858493149280539 2.8841289281845075 5.7682578563690186 3.3648170828819275 27.158880740404133
leaf_count=10 17 12 24 14 113
internal_value=-1.34807 -1.74658 0.214642 0.638157 -2.32395
internal_weight=0 38.2147 8.65239 7.45067 29.5623
internal_count=190 159 36 31 123
is_linear=0
shrinkage=1


Tree=72
num_leaves=4
num_cat=0
split_feature=38 1 3
split_gain=79.2511 17.031 12.8682
threshold=5.524999999999992e-06 -2.0338651740599762 -0.53201544565455239
decision_type=2 2 2
left_child=2 -2 -1
right_child=1 -3 -4
leaf_value=4.3061122518111246 0.61463495344248065 -3.023634066598007 0.45378965432847718
leaf_weight=1.5854802131652834 1.3212335109710718 19.950626015663147 2.2460969686508205
leaf_count=12 10 151 17
internal_value=-2.11918 -2.78943 2.12297
internal_weight=0 21.2719 3.83158
internal_count=190 161 29
is_linear=0
shrinkage=1


Tree=73
num_leaves=4
num_cat=0
split_feature=22 4 17
split_gain=36.4724 70.3347 10.1064
threshold=-3.9018232500000001 -0.15320245506451621 7.400385
decision_type=2 2 2
left_child=-1 2 -2
right_child=1 -3 -4
leaf_value=-3.179478427978065 1.0416324417335345 -3.1599056764270932 5.3581005385172293
leaf_weight=15.275091156363489 1.131488233804703 3.6207623481750479 1.4709347039461134
leaf_count=135 10 32 13
internal_value=-2.29611 -0.317168 3.59852
internal_weight=0 6.22319 2.60242
internal_count=190 55 23
is_linear=0
shrinkage=1


Tree=74
num_leaves=2
num_cat=0
split_feature=40
split_gain=12.8221
threshold=2.904557138532761e-05
decision_type=2
left_child=-1
right_child=-2
leaf_value=-4.733351126301053 2.1399858426952054
leaf_weight=4.2977313324809074 0.23876285180449475
leaf_count=180 10
internal_value=-3.93834
internal_weight=0
internal_count=190
is_linear=0
shrinkage=1


Tree=75
num_leaves=11
num_cat=0
split_feature=33 27 37 47 0 16 27 26 26 8
split_gain=19.0472 26.2057 23.3012 21.3085 5.54872 5.36128 3.00561 2.24058 1.54434 4.02497
threshold=1.3603598320891372 0.014171372574482767 -0.038240435595238008 0.0030622000000000015 7.5727696197495478 -0.00030303983171262153 -0.014659271276168194 -0.017042149264897753 0.0475481511539773 0.1078577410167313
decision_type=2 2 2 2 2 2 2 2 2 2
left_child=3 5 8 -1 -5 -2 -6 -7 9 -3
right_child=1 2 -4 4 6 7 -8 -9 -10 -11
leaf_value=0.86957683377697081 -0.69314718055994529 -0.69314718055994529 0.8752418771908147 -2.2813155537112531 -0.69314718055994529 -0.078973952213489573 -1.9372416687489222 0.8978406877242836 -2.2702396915731606 -2.2558711948968626
leaf_weight=3.4375000000000027 3.1250000000000027 3.1250000000000018 4.0624999999999991 10.937500000000002 5 3.1250000000000044 3.1249999999999982 14.374999999999996 5.625 3.4375
leaf_count=11 10 10 13 35 16 10 10 46 18 11
internal_value=-0.693147 -0.234109 -1.18088 -1.40046 -1.81545 0.513624 -1.17633 0.728505 -1.87394 -1.51734
internal_weight=0 36.875 16.25 22.5 19.0625 20.625 8.125 17.5 12.1875 6.5625
internal_count=190 118 52 72 61 66 26 56 39 21
is_linear=0
shrinkage=1


Tree=76
num_leaves=7
num_cat=0
split_feature=3 26 37 40 27 14
split_gain=37.1514 18.1333 35.1566 24.8554 3.15697 1.40334
threshold=-0.20720301884078207 -0.065522186348363029 -0.059026581606575826 4.1374501531415105e-07 -0.014659271276168194 0.0080144184027777805
decision_type=2 2 2 2 2 2
left_child=-1 5 3 4 -3 -2
right_child=1 2 -4 -5 -6 -7
leaf_value=-2.4233100544658939 0.4260057793091423 0.23187219193260566 -2.4180094069214286 -2.3933180007750092 1.4957199534183407 1.6561970070746106
leaf_weight=18.987182110548019 2.4034407734870937 4.0858493149280566 9.6137630939483607 2.8841289281845102 5.0472256243228912 2.6437848508358002
leaf_count=79 10 17 40 12 21 11
internal_value=-1.34807 -0.595354 -0.998763 0.140506 0.94744 1.10335
internal_weight=0 26.6782 21.631 12.0172 9.13307 5.04723
internal_count=190 111 90 50 38 21
is_linear=0
shrinkage=1


Tree=77
num_leaves=4
num_cat=0
split_feature=38 6 3
split_gain=79.2511 14.0906 12.8682
threshold=5.524999999999992e-06 -2.0456877791194992 -0.53201544565455239
decision_type=2 2 2
left_child=2 -2 -1
right_child=1 -3 -4
leaf_value=4.3061122518111246 0.026023847596084781 -3.023570162950838 0.45378965432847718
leaf_weight=1.5854802131652834 1.5854802131652856 19.686379313468933 2.2460969686508205
leaf_count=12 12 149 17
internal_value=-2.11918 -2.78943 2.12297
internal_weight=0 21.2719 3.83158
internal_count=190 161 29
is_linear=0
shrinkage=1


Tree=78
num_leaves=4
num_cat=0
split_feature=3 46 4
split_gain=45.1764 67.0711 5.14028
threshold=-0.4177822038639849 -0.022650999999999529 -0.17663297132694442
decision_type=2 2 2
left_child=1 2 -1
right_child=-2 -3 -4
leaf_value=1.8880225825216113 -3.1798222509224829 -3.1528243233015467 5.3344567191517207
leaf_weight=1.131488233804703 16.180281743407249 2.8287205845117596 1.3577858805656431
leaf_count=10 143 25 12
internal_value=-2.29611 0.166535 3.90082
internal_weight=0 5.31799 2.48927
internal_count=190 47 22
is_linear=0
shrinkage=1


Tree=79
num_leaves=2
num_cat=0
split_feature=40
split_gain=12.8221
threshold=2.904557138532761e-05
decision_type=2
left_child=-1
right_child=-2
leaf_value=-4.733351126301053 2.1399858426952054
leaf_weight=4.2977313324809074 0.23876285180449475
leaf_count=180 10
internal_value=-3.93834
internal_weight=0
internal_count=190
is_linear=0
shrinkage=1


Tree=80
num_leaves=10
num_cat=0
split_feature=45 18 35 5 28 45 1 14 28
split_gain=22.2304 19.0075 11.2924 7.85526 17.2511 6.64893 5.80639 4.89044 0.838872
threshold=0.046022391000000135 -5.2536508333333343 2.4595619999994907 7.733170905463834 -0.021390878945505808 0.0018858050000000043 -2.0166724264409255 0.001866145340709663 -0.00526044132992991
decision_type=2 2 2 2 2 2 2 2 2
left_child=1 2 3 7 5 -5 -4 -1 -9
right_child=-2 -3 6 4 -6 -7 -8 8 -10
leaf_value=-1.0636575775353705 0.88808025626315945 0.87941218619467232 -0.99235977898514205 -0.59816037317208248 0.8752418771908147 -2.1299702852530857 0.86957683377697237 -1.7416053303396808 -2.2809691946114672
leaf_weight=6.5625000000000027 6.8749999999999991 4.6874999999999991 3.125 4.6874999999999982 4.0624999999999991 6.875 3.4374999999999991 5.6250000000000009 10.625
leaf_count=21 22 15 10 15 13 22 11 18 34
internal_value=-0.693147 -1.02388 -1.22478 -1.43235 -0.881345 -1.50693 -0.0201793 -1.80632 -2.10112
internal_weight=0 49.6875 45 38.4375 15.625 11.5625 6.5625 22.8125 16.25
internal_count=181 159 144 123 50 37 21 73 52
is_linear=0
shrinkage=1


Tree=81
num_leaves=6
num_cat=0
split_feature=21 38 3 3 13
split_gain=44.7744 31.3949 25.4054 6.74602 5.39864
threshold=6.4749295000000009 4.8307823889103374e-05 0.1756952484108702 -0.024447732795900224 -5.4752338249999957
decision_type=2 2 2 2 2
left_child=1 4 -3 -2 -1
right_child=3 2 -4 -5 -6
leaf_value=-0.94237733951597369 -0.37770301043900067 -2.3901544765799221 1.4711253572522078 1.4957199534183416 -2.4246605762979394
leaf_weight=2.6437848508357993 3.3648170828819275 2.6437848508357993 4.566537469625473 5.0472256243228895 25.23612812161446
leaf_count=11 14 11 19 21 105
internal_value=-1.34807 -1.79975 0.0510097 0.762421 -2.28183
internal_weight=0 35.0902 7.21032 8.41204 27.8799
internal_count=181 146 30 35 116
is_linear=0
shrinkage=1


Tree=82
num_leaves=4
num_cat=0
split_feature=38 1 2
split_gain=58.1599 33.2697 17.2301
threshold=5.524999999999992e-06 -2.0338651740599762 -0.084130147025539143
decision_type=2 2 2
left_child=2 -2 -1
right_child=1 -3 -4
leaf_value=4.2855324904187713 2.0731757156072907 -3.0234026581205349 -0.25782737704508252
leaf_weight=1.4533568620681765 1.3212335109710718 19.025762557983398 2.1139736175537136
leaf_count=11 10 144 16
internal_value=-2.11918 -2.68054 1.66994
internal_weight=0 20.347 3.56733
internal_count=181 154 27
is_linear=0
shrinkage=1


Tree=83
num_leaves=4
num_cat=0
split_feature=20 17 10
split_gain=42.0333 22.3106 21.63
threshold=0.012107157014640999 8.3607738666666691 -2.0353659795361656
decision_type=2 2 2
left_child=1 2 -1
right_child=-2 -3 -4
leaf_value=0.75566762033591184 3.5808028640977709 1.4445938110844865 -3.179980170864984
leaf_weight=1.4709347039461196 1.1314882338047016 1.2446370571851719 16.632877036929134
leaf_count=13 10 11 147
internal_value=-2.29611 -2.56217 -2.84993
internal_weight=0 19.3484 18.1038
internal_count=181 171 160
is_linear=0
shrinkage=1


Tree=84
num_leaves=2
num_cat=0
split_feature=38
split_gain=24.4459
threshold=0.00037821244712165009
decision_type=2
left_child=-1
right_child=-2
leaf_value=-4.7320084992566418 4.1333068405197144
leaf_weight=4.0350921954959631 0.28651542216539372
leaf_count=169 12
internal_value=-3.93834
internal_weight=0
internal_count=181
is_linear=0
shrinkage=1


Tree=85
num_leaves=8
num_cat=0
split_feature=45 18 3 3 18 13 40
split_gain=22.2304 19.0075 10.5023 18.2286 13.0483 19.0294 6.69775
threshold=0.046022391000000135 -5.2536508333333343 -0.7231826093264494 -0.024447732795900224 -5.4280780000000002 -5.4064542238095212 -1.5171747123790384e-06
decision_type=2 2 2 2 2 2 2
left_child=1 2 -1 4 5 -4 -5
right_child=-2 -3 3 6 -6 -7 -8
leaf_value=-2.2766129993198816 0.88808025626315945 0.87941218619467232 -1.3201313075440719 -2.2806019453367843 -1.8435429589240613 0.89391749605696991 -0.9353183705390683
leaf_weight=7.8124999999999991 6.8749999999999991 4.6874999999999991 6.2500000000000027 10.312500000000002 4.6874999999999991 9.9999999999999982 5.9375000000000027
leaf_count=25 22 15 20 33 15 32 19
internal_value=-0.693147 -1.02388 -1.22478 -1.00063 -0.385821 0.0399817 -1.79437
internal_weight=0 49.6875 45 37.1875 20.9375 16.25 16.25
internal_count=181 159 144 119 67 52 52
is_linear=0
shrinkage=1


Tree=86
num_leaves=6
num_cat=0
split_feature=23 38 25 3 25
split_gain=47.1991 30.0587 26.8356 5.31453 4.49744
threshold=13.397471650000004 4.8307823889103374e-05 -0.093572375220386847 -0.024447732795900224 -0.093740167910862954
decision_type=2 2 2 2 2
left_child=1 4 -3 -2 -1
right_child=3 2 -4 -5 -6
leaf_value=-1.1674520825976225 -0.22241330476651155 -2.3933180007750097 1.4711253572522083 1.4957199534183416 -2.4245808477256983
leaf_weight=3.1244730055332175 3.1244730055332184 2.8841289281845093 4.5665374696254721 5.0472256243228895 24.755439966917042
leaf_count=13 13 12 19 21 103
internal_value=-1.34807 -1.80402 -0.0284501 0.855709 -2.28183
internal_weight=0 35.3306 7.45067 8.1717 27.8799
internal_count=181 147 31 34 116
is_linear=0
shrinkage=1


Tree=87
num_leaves=4
num_cat=0
split_feature=38 2 19
split_gain=58.1599 17.2301 16.6951
threshold=5.524999999999992e-06 -0.084130147025539143 10.790267250000001
decision_type=2 2 2
left_child=1 -1 -2
right_child=2 -3 -4
leaf_value=4.2855324904187713 -0.29617176060606409 -0.25782737704508252 -3.0230699692624188
leaf_weight=1.4533568620681765 2.5103436708450344 2.1139736175537136 17.836652398109436
leaf_count=11 19 16 135
internal_value=-2.11918 1.66994 -2.68054
internal_weight=0 3.56733 20.347
internal_count=181 27 154
is_linear=0
shrinkage=1


Tree=88
num_leaves=3
num_cat=0
split_feature=3 46
split_gain=63.6473 89.4686
threshold=-0.4177822038639849 -0.021949833333332995
decision_type=2 2
left_child=1 -1
right_child=-2 -3
leaf_value=5.4588356945902472 -3.1796552708655024 -3.1484371362681212
leaf_weight=2.2629764676094055 15.727686449885367 2.4892741143703487
leaf_count=20 139 22
internal_value=-2.29611 0.97792
internal_weight=0 4.75225
internal_count=181 42
is_linear=0
shrinkage=1


Tree=89
num_leaves=2
num_cat=0
split_feature=40
split_gain=28.8415
threshold=1.9634409489898162e-05
decision_type=2
left_child=-1
right_child=-2
leaf_value=-4.7322653059313975 5.6030351452642924
leaf_weight=4.0828447658568621 0.23876285180449475
leaf_count=171 10
internal_value=-3.93834
internal_weight=0
internal_count=181
is_linear=0
shrinkage=1


Tree=90
num_leaves=9
num_cat=0
split_feature=18 27 25 13 35 13 40 5
split_gain=15.8184 14.9433 26.9102 13.0232 7.25872 3.71731 2.43673 5.77934
threshold=-5.2956486499999995 0.014171372574482767 -0.093572375220386847 -5.9740996904761854 1.5436729438333336 -4.6456435833333343 8.4473306514240511e-07 7.740311322130502
decision_type=2 2 2 2 2 2 2 2
left_child=1 2 3 -1 6 -3 7 -4
right_child=-2 5 4 -5 -6 -7 -8 -9
leaf_value=-1.206305075296787 0.8851409196488228 -2.1600102144332882 -2.0693848043223197 0.89674591953723681 -0.30700856669855914 -0.94314718055994529 -2.2674046063025197 -0.44314718055994534
leaf_weight=3.7500000000000027 5.9374999999999991 8.4374999999999982 5.0000000000000053 12.812499999999995 4.9999999999999991 3.7499999999999991 4.9999999999999991 3.75
leaf_count=12 19 27 16 41 16 12 16 12
internal_value=-0.693147 -0.839309 -0.510751 0.417462 -1.32879 -1.79223 -1.70402 -1.36928
internal_weight=0 47.5 35.3125 16.5625 18.75 12.1875 13.75 8.75
internal_count=171 152 113 53 60 39 44 28
is_linear=0
shrinkage=1


Tree=91
num_leaves=6
num_cat=0
split_feature=23 38 3 41 5
split_gain=44.7266 26.236 33.2938 9.28167 2.0946
threshold=13.397471650000004 4.8307823889103374e-05 0.1756952484108702 0.60331216666666676 7.6725944054638369
decision_type=2 2 2 2 2
left_child=1 3 -3 -1 -2
right_child=4 2 -4 -5 -6
leaf_value=-2.4244979680766803 1.6721872292773303 -2.4003123738095296 1.6853110302523053 -0.38917593659673044 0.40761254712089579
leaf_weight=24.274751812219623 3.3648170828819266 3.6051611602306357 4.3261933922767639 2.4034407734870902 3.1244730055332184
leaf_count=101 14 15 18 10 13
internal_value=-1.34807 -1.76218 -0.173013 -2.23781 1.08904
internal_weight=0 34.6095 7.93135 26.6782 6.48929
internal_count=171 144 33 111 27
is_linear=0
shrinkage=1


Tree=92
num_leaves=4
num_cat=0
split_feature=4 16 16
split_gain=58.271 26.4485 31.2686
threshold=-0.6498521298301948 -0.00037350953603098978 -0.00049751903280056172
decision_type=2 2 2
left_child=-1 2 -2
right_child=1 -3 -4
leaf_value=3.6946710512089682 -2.9781569915644268 -3.0229074765140576 2.7595096951364528
leaf_weight=1.5854802131652856 1.8497269153594973 17.308158993721008 1.8497269153594995
leaf_count=12 14 131 14
internal_value=-2.11918 -2.5015 -0.0958569
internal_weight=0 21.0076 3.69945
internal_count=171 159 28
is_linear=0
shrinkage=1


Tree=93
num_leaves=4
num_cat=0
split_feature=29 3 3
split_gain=27.6772 50.6465 0.530312
threshold=2.5850783320891373 -0.34434107536175557 -0.7231826093264494
decision_type=2 2 2
left_child=2 -2 -1
right_child=1 -3 -4
leaf_value=-2.5158632172568827 4.6241214285693033 -3.1403672244094363 -3.1790914389533542
leaf_weight=1.5840835273265845 1.3577858805656435 2.0366788208484641 14.369900569319725
leaf_count=14 12 18 127
internal_value=-2.29611 0.00628275 -3.11726
internal_weight=0 3.39446 15.954
internal_count=171 30 141
is_linear=0
shrinkage=1


Tree=94
num_leaves=2
num_cat=0
split_feature=36
split_gain=28.7154
threshold=0.20740473559523817
decision_type=2
left_child=-1
right_child=-2
leaf_value=-4.7309182888861052 5.6030351452642924
leaf_weight=3.8440819140523672 0.23876285180449475
leaf_count=161 10
internal_value=-3.93834
internal_weight=0
internal_count=171
is_linear=0
shrinkage=1


Tree=95
num_leaves=10
num_cat=0
split_feature=18 9 9 14 14 9 8 8 3
split_gain=15.8184 15.8151 8.18936 19.6396 15.5166 24.0738 5.11482 3.39581 3.21526
threshold=-5.2956486499999995 7.5782074054638349 7.5860404054638346 0.0017229909426440353 0.0020808927835807615 7.8161575721305026 -0.33621367696823018 0.090663888714815247 0.13547007849601475
decision_type=2 2 2 2 2 2 2 2 2
left_child=1 6 -3 -4 7 8 -1 -5 -6
right_child=-2 2 3 4 5 -7 -8 -9 -10
leaf_value=-0.69314718055994529 0.8851409196488228 -2.2689047563175211 0.88111024518262904 -2.2809691946114667 0.88514091964882324 -2.2674046063025197 0.88514091964882324 -1.1089177898789417 -0.39393458213474852
leaf_weight=3.125 5.9374999999999991 5.3124999999999991 4.9999999999999991 10.625000000000002 5.9374999999999982 4.9999999999999991 5.9374999999999982 3.4374999999999991 3.125
leaf_count=10 19 17 16 34 19 16 19 11 10
internal_value=-0.693147 -0.839309 -1.12056 -0.932785 -1.25925 -0.519542 0.34389 -2.0005 0.453629
internal_weight=0 47.5 38.4375 33.125 28.125 14.0625 9.0625 14.0625 9.0625
internal_count=171 152 123 106 90 45 29 45 29
is_linear=0
shrinkage=1


Tree=96
num_leaves=6
num_cat=0
split_feature=23 38 25 12 5
split_gain=44.7266 26.236 25.9635 8.37106 2.0946
threshold=13.397471650000004 4.8307823889103374e-05 -0.093572375220386847 5.761750954081637 7.6725944054638369
decision_type=2 2 2 2 2
left_child=1 3 -3 -1 -2
right_child=4 2 -4 -5 -6
leaf_value=-2.4244552876383478 1.6721872292773303 -2.3960024947168788 1.2781377544379449 -0.5711524328601757 0.40761254712089579
leaf_weight=24.034407734870914 3.3648170828819266 3.1244730055332184 4.8068815469741812 2.6437848508357993 3.1244730055332184
leaf_count=100 14 13 20 11 13
internal_value=-1.34807 -1.76218 -0.173013 -2.23781 1.08904
internal_weight=0 34.6095 7.93135 26.6782 6.48929
internal_count=171 144 33 111 27
is_linear=0
shrinkage=1


Tree=97
num_leaves=4
num_cat=0
split_feature=2 41 41
split_gain=58.271 25.351 49.1445
threshold=-0.56013394245418002 0.022561249999999981 0.018785099999999905
decision_type=2 2 2
left_child=-1 2 -2
right_child=1 -3 -4
leaf_value=3.6946710512089682 -2.9890937205054691 -3.0228652954317781 4.285532490418773
leaf_weight=1.5854802131652856 2.3782203197479279 17.176035642623901 1.453356862068176
leaf_count=12 18 130 11
internal_value=-2.11918 -2.5015 -0.195677
internal_weight=0 21.0076 3.83158
internal_count=171 159 29
is_linear=0
shrinkage=1


Tree=98
num_leaves=4
num_cat=0
split_feature=29 7 36
split_gain=27.6772 50.6465 0.809506
threshold=2.5850783320891373 9.7127807773333341 0.17153141601190469
decision_type=2 2 2
left_child=2 -2 -1
right_child=1 -3 -4
leaf_value=-3.1792908218321561 -3.1403672244094363 4.6241214285693051 -2.2961125784884282
leaf_weight=14.822495862841608 2.0366788208484645 1.3577858805656431 1.1314882338047016
leaf_count=131 18 12 10
internal_value=-2.29611 0.00628275 -3.11726
internal_weight=0 3.39446 15.954
internal_count=171 30 141
is_linear=0
shrinkage=1


Tree=99
num_leaves=2
num_cat=0
split_feature=40
split_gain=24.3198
threshold=2.904557138532761e-05
decision_type=2
left_child=-1
right_child=-2
leaf_value=-4.730628817452553 4.1333068405197144
leaf_weight=3.7963293436914682 0.28651542216539372
leaf_count=159 12
internal_value=-3.93834
internal_weight=0
internal_count=171
is_linear=0
shrinkage=1


Tree=100
num_leaves=9
num_cat=0
split_feature=19 25 43 47 45 33 9 45
split_gain=19.9537 18.0491 14.9528 13.5101 10.6247 8.03464 21.5226 6.63035
threshold=10.761361000000003 -0.09360539545848208 0.1498206873333334 0.065334393333333338 0.026502000000000473 1.4870214987558044 7.6588359054638344 0.0018858050000000043
decision_type=2 2 2 2 2 2 2 2
left_child=-1 2 -2 4 -4 7 -7 -3
right_child=1 5 3 -5 -6 6 -8 -9
leaf_value=0.88719308409033826 0.88889081598582254 -0.80256967296116088 -0.17998928582310303 0.48507064122223309 -2.2734874452102285 -1.9710299782915142 0.87747428836660812 -2.2830402806571271
leaf_weight=6.5624999999999991 7.1875000000000027 4.0625000000000062 3.7499999999999982 4.9999999999999991 6.5625 6.5624999999999982 4.375 12.812499999999998
leaf_count=21 23 13 12 16 21 21 14 41
internal_value=-0.693147 -0.960211 -0.296251 -0.852626 -1.50859 -1.49889 -0.825115 -1.93096
internal_weight=0 50.3125 22.5 15.3125 10.3125 27.8125 10.9375 16.875
internal_count=182 161 72 49 33 89 35 54
is_linear=0
shrinkage=1


Tree=101
num_leaves=7
num_cat=0
split_feature=23 16 20 3 1 13
split_gain=38.1855 25.7453 11.5311 5.46869 1.70572 1.32662
threshold=13.397471650000004 0.0003227883117565493 -0.0023882641818061155 -0.024447732795900224 -1.9737866095361667 -5.9740996904761854
decision_type=2 2 2 2 2 2
left_child=1 2 -1 -2 -3 -4
right_child=3 4 5 -5 -6 -7
leaf_value=-0.19992752620437937 -0.22241330476651155 -0.38249968868926387 -1.6477046632683257 1.6721872292773303 0.83359663726208244 -2.4248825556524403
leaf_weight=2.6437848508358028 3.1244730055332184 2.8841289281845093 2.6437848508358028 3.3648170828819266 2.4034407734870902 26.678192585706711
leaf_count=11 13 12 11 14 10 111
internal_value=-1.34807 -1.83623 -2.17565 0.7832 0.194898 -2.35714
internal_weight=0 37.2533 31.9658 6.48929 5.28757 29.322
internal_count=182 155 133 27 22 122
is_linear=0
shrinkage=1


Tree=102
num_leaves=4
num_cat=0
split_feature=38 1 3
split_gain=76.1857 33.2208 13.3089
threshold=5.524999999999992e-06 -2.0338651740599762 -0.7231826093264494
decision_type=2 2 2
left_child=2 -2 -1
right_child=1 -3 -4
leaf_value=4.3061122518111263 2.0731757156072907 -3.0232964681938488 0.48497336181321726
leaf_weight=1.585480213165283 1.3212335109710718 18.629392504692078 2.5103436708450344
leaf_count=12 10 141 19
internal_value=-2.11918 -2.67365 2.03584
internal_weight=0 19.9506 4.09582
internal_count=182 151 31
is_linear=0
shrinkage=1


Tree=103
num_leaves=4
num_cat=0
split_feature=31 24 41
split_gain=48.64 55.4567 12.5829
threshold=2.6788185000000007 2.542214046374855 0.81103566666666693
decision_type=2 2 2
left_child=2 -2 -1
right_child=1 -3 -4
leaf_value=-3.179781385109135 4.8742514758138853 -3.1278270341772165 0.19524230094546047
leaf_weight=16.067132920026786 1.8103811740875237 1.5840835273265836 1.1314882338047016
leaf_count=142 16 14 10
internal_value=-2.29611 1.16757 -2.94826
internal_weight=0 3.39446 17.1986
internal_count=182 30 152
is_linear=0
shrinkage=1


Tree=104
num_leaves=2
num_cat=0
split_feature=39
split_gain=40.4558
threshold=-0.00016422573546852069
decision_type=2
left_child=-1
right_child=-2
leaf_value=6.3192575940022442 -4.7320084992566418
leaf_weight=0.3103917073458432 4.0350921954959631
leaf_count=13 169
internal_value=-3.93834
internal_weight=0
internal_count=182
is_linear=0
shrinkage=1


Tree=105
num_leaves=9
num_cat=0
split_feature=19 25 36 36 33 9 47 17
split_gain=19.9537 18.0491 20.3372 18.843 8.03464 21.5226 6.63035 6.29639
threshold=10.761361000000003 -0.09360539545848208 0.044880464575963681 0.046031180190476188 1.4870214987558044 7.6588359054638344 0.0041593200000000054 7.8078128333333359
decision_type=2 2 2 2 2 2 2 2
left_child=-1 2 -2 -4 6 -6 -3 -5
right_child=1 4 3 7 5 -7 -8 -9
leaf_value=0.88719308409033826 0.89208009216732653 -0.80256967296116088 -2.2734874452102289 0.87524187719081425 -1.9710299782915142 0.87747428836660812 -2.2830402806571271 -0.99235977898514205
leaf_weight=6.5624999999999991 8.7500000000000018 4.0625000000000062 6.5624999999999982 4.0625 6.5624999999999982 4.375 12.812499999999998 3.125
leaf_count=21 28 13 21 13 21 14 41 10
internal_value=-0.693147 -0.960211 -0.296251 -1.05184 -1.49889 -0.825115 -1.93096 0.0598753
internal_weight=0 50.3125 22.5 13.75 27.8125 10.9375 16.875 7.1875
internal_count=182 161 72 44 89 35 54 23
is_linear=0
shrinkage=1


Tree=106
num_leaves=6
num_cat=0
split_feature=23 38 23 3 13
split_gain=38.1855 42.2153 11.6173 5.46869 1.33022
threshold=13.397471650000004 4.8307823889103374e-05 6.9443120833333358 -0.024447732795900224 -5.4752338249999957
decision_type=2 2 2 2 2
left_child=1 4 -3 -2 -1
right_child=3 2 -4 -5 -6
leaf_value=-1.6477046632683261 -0.22241330476651155 1.6721872292773303 -0.88750234738595912 1.6721872292773303 -2.4249847989477518
leaf_weight=2.6437848508357993 3.1244730055332184 3.3648170828819266 3.8455052375793457 3.3648170828819266 27.399224817752842
leaf_count=11 13 14 16 14 114
internal_value=-1.34807 -1.83623 0.32648 0.7832 -2.35886
internal_weight=0 37.2533 7.21032 6.48929 30.043
internal_count=182 155 30 27 125
is_linear=0
shrinkage=1


Tree=107
num_leaves=4
num_cat=0
split_feature=2 1 1
split_gain=66.8317 49.9285 33.362
threshold=-0.56013394245418002 -1.0000000180025095e-35 -2.0355036403695004
decision_type=2 2 2
left_child=-1 2 -2
right_child=1 -3 -4
leaf_value=4.3061122518111157 2.0731757156072801 3.5317164777721164 -3.0236023272505248
leaf_weight=1.5854802131652856 1.3212335109710753 1.3212335109710682 19.81850266456604
leaf_count=12 10 10 150
internal_value=-2.11918 -2.3134 -2.69355
internal_weight=0 22.461 21.1397
internal_count=182 170 160
is_linear=0
shrinkage=1


Tree=108
num_leaves=4
num_cat=0
split_feature=31 24 36
split_gain=48.64 55.4567 12.5829
threshold=2.6788185000000007 2.542214046374855 0.21877021428571428
decision_type=2 2 2
left_child=2 -2 -1
right_child=1 -3 -4
leaf_value=-3.179781385109135 4.8742514758138853 -3.1278270341772165 0.19524230094546047
leaf_weight=16.067132920026786 1.8103811740875237 1.5840835273265836 1.1314882338047016
leaf_count=142 16 14 10
internal_value=-2.29611 1.16757 -2.94826
internal_weight=0 3.39446 17.1986
internal_count=182 30 152
is_linear=0
shrinkage=1


Tree=109
num_leaves=2
num_cat=0
split_feature=39
split_gain=40.4558
threshold=-0.00016422573546852069
decision_type=2
left_child=-1
right_child=-2
leaf_value=6.3192575940022442 -4.7320084992566418
leaf_weight=0.3103917073458432 4.0350921954959631
leaf_count=13 169
internal_value=-3.93834
internal_weight=0
internal_count=182
is_linear=0
shrinkage=1


Tree=110
num_leaves=9
num_cat=0
split_feature=18 13 16 13 9 39 44 45
split_gain=22.2493 20.5444 18.0258 20.4537 9.84331 4.51814 3.04443 8.03013
threshold=-5.2956486499999995 -4.7016914071428584 -0.00037350953603098978 -5.7404843126984071 7.6430171554638351 -6.9569618055555247e-06 3.4199330536224947e-06 0.015024499999999998
decision_type=2 2 2 2 2 2 2 2
left_child=1 2 5 -4 -3 -1 7 -6
right_child=-2 4 3 -5 6 -7 -8 -9
leaf_value=-0.69314718055994529 0.88963427639369697 -0.25246921445825071 -1.4753253983817269 0.89674591953723637 -2.2702396915731602 -2.2637686494864977 -2.2806019453367847 -0.47845791502322216
leaf_weight=3.125 7.4999999999999991 4.3750000000000027 5.0000000000000027 12.812499999999998 5.6250000000000018 4.3750000000000027 10.312499999999998 4.375
leaf_count=10 24 14 16 41 18 14 33 14
internal_value=-0.693147 -0.951888 -0.32055 0.227777 -1.60068 -1.61368 -1.89388 -1.48419
internal_weight=0 50 25.3125 17.8125 24.6875 7.5 20.3125 10
internal_count=184 160 81 57 79 24 65 32
is_linear=0
shrinkage=1


Tree=111
num_leaves=6
num_cat=0
split_feature=9 44 35 44 13
split_gain=51.5982 29.2322 12.7138 5.94886 4.3195
threshold=7.7082200721305014 -2.4059418010987285e-06 1.4541000000000002 -1.7307254259554355e-05 -4.5621602380952302
decision_type=2 2 2 2 2
left_child=3 -2 4 -1 -3
right_child=1 2 -4 -5 -6
leaf_value=-0.79676679454966892 -2.4036204234493814 0.092599621177192226 -1.1674520825976225 -2.4244552876383483 1.5714078114894663
leaf_weight=2.4034407734870937 4.0858493149280575 3.1244730055332184 3.1244730055332175 24.034407734870911 7.4506663978099805
leaf_count=10 17 13 13 100 31
internal_value=-1.34807 -0.0736894 0.62615 -2.27383 1.14803
internal_weight=0 17.7855 13.6996 26.4378 10.5751
internal_count=184 74 57 110 44
is_linear=0
shrinkage=1


Tree=112
num_leaves=4
num_cat=0
split_feature=38 1 2
split_gain=72.3192 15.4086 3.53685
threshold=5.524999999999992e-06 -2.0338651740599762 3.0466494894916121
decision_type=2 2 2
left_child=2 -2 -1
right_child=1 -3 -4
leaf_value=1.128511130486213 0.29446419387419809 -3.0235045248939496 3.5317164777721128
leaf_weight=2.113973617553714 1.4533568620681787 19.422132611274719 1.3212335109710691
leaf_count=16 11 147 10
internal_value=-2.11918 -2.7849 2.13498
internal_weight=0 20.8755 3.43521
internal_count=184 158 26
is_linear=0
shrinkage=1


Tree=113
num_leaves=3
num_cat=0
split_feature=3 46
split_gain=62.0478 75.9815
threshold=-0.4177822038639849 -0.022650999999999529
decision_type=2 2
left_child=1 -1
right_child=-2 -3
leaf_value=4.6884481130909883 -3.1797399414498377 -3.146701929699836
leaf_weight=2.4892741143703461 15.953984096646307 2.3761252909898785
leaf_count=22 141 21
internal_value=-2.29611 0.882078
internal_weight=0 4.8654
internal_count=184 43
is_linear=0
shrinkage=1


Tree=114
num_leaves=2
num_cat=0
split_feature=40
split_gain=43.6302
threshold=2.904557138532761e-05
decision_type=2
left_child=-1
right_child=-2
leaf_value=-4.7323914966151026 7.1049388272936431
leaf_weight=4.1067210510373116 0.28651542216539372
leaf_count=172 12
internal_value=-3.93834
internal_weight=0
internal_count=184
is_linear=0
shrinkage=1


Tree=115
num_leaves=11
num_cat=0
split_feature=18 25 27 35 18 32 13 26 44 6
split_gain=22.2493 20.7414 23.7711 8.11677 18.8976 4.89587 3.82124 3.77649 1.39528 0.0211313
threshold=-5.2956486499999995 -0.09360539545848208 0.014171372574482767 1.5436729438333336 -5.7489824999999994 -0.068042431539335216 -5.9740996904761854 0.025508607912132022 -2.4059418010987285e-06 -2.0356578112028325
decision_type=2 2 2 2 2 2 2 2 2 2
left_child=1 2 6 5 -5 -3 -1 -4 -7 -10
right_child=-2 3 7 4 -6 8 -8 -9 9 -11
leaf_value=-0.39393458213474858 0.88963427639369697 -0.69314718055994529 -2.2615362383107054 0.87524187719081425 -2.0546247531193123 -1.4694629700336281 0.89430758421689382 -0.82217943862446141 -1.9372416687489196 -2.2806019453367856
leaf_weight=3.1250000000000009 7.4999999999999991 3.1250000000000027 4.0624999999999991 4.0625 4.6874999999999982 3.7500000000000062 10.3125 3.4375 3.1250000000000044 10.312499999999993
leaf_count=10 24 10 13 13 15 12 33 11 10 33
internal_value=-0.693147 -0.951888 -0.195232 -1.49864 -0.693147 -1.84477 0.600643 -1.61368 -2.05355 -2.20937
internal_weight=0 50 20.9375 29.0625 8.75 20.3125 13.4375 7.5 17.1875 13.4375
internal_count=184 160 67 93 28 65 43 24 55 43
is_linear=0
shrinkage=1


Tree=116
num_leaves=6
num_cat=0
split_feature=9 11 2 2 21
split_gain=51.5982 25.886 17.9352 9.85895 5.94886
threshold=7.7082200721305014 9.746118233333334 0.16085997147501654 0.50072277524820297 6.3331125000000013
decision_type=2 2 2 2 2
left_child=4 3 -3 -2 -1
right_child=1 2 -4 -5 -6
leaf_value=-2.4244552876383478 -0.79676679454966881 0.83359663726208244 -2.41012363685787 1.5714078114894658 -0.79676679454966814
leaf_weight=24.034407734870914 2.4034407734870928 2.4034407734870902 5.5279137790203094 7.4506663978099823 2.4034407734870902
leaf_count=100 10 10 23 31 10
internal_value=-1.34807 -0.0736894 -1.4134 1.00455 -2.27383
internal_weight=0 17.7855 7.93135 9.85411 26.4378
internal_count=184 74 33 41 110
is_linear=0
shrinkage=1


Tree=117
num_leaves=4
num_cat=0
split_feature=38 1 2
split_gain=72.3192 15.4086 3.53685
threshold=5.524999999999992e-06 -2.0338651740599762 3.0466494894916121
decision_type=2 2 2
left_child=2 -2 -1
right_child=1 -3 -4
leaf_value=1.128511130486213 0.29446419387419809 -3.0235045248939496 3.5317164777721128
leaf_weight=2.113973617553714 1.4533568620681787 19.422132611274719 1.3212335109710691
leaf_count=16 11 147 10
internal_value=-2.11918 -2.7849 2.13498
internal_weight=0 20.8755 3.43521
internal_count=184 158 26
is_linear=0
shrinkage=1


Tree=118
num_leaves=4
num_cat=0
split_feature=27 34 9
split_gain=47.4745 63.2828 19.6778
threshold=0.018947450228775062 -0.093740167905042068 7.235100238797167
decision_type=2 2 2
left_child=2 -2 -1
right_child=1 -3 -4
leaf_value=1.0416324417335181 5.3962012926063299 -3.1315711483124082 -3.1798625508915079
leaf_weight=1.1314882338047088 1.6972323507070544 1.697232350707053 16.29343056678772
leaf_count=10 15 15 144
internal_value=-2.29611 1.16757 -2.89411
internal_weight=0 3.39446 17.4249
internal_count=184 30 154
is_linear=0
shrinkage=1


Tree=119
num_leaves=2
num_cat=0
split_feature=40
split_gain=43.6302
threshold=2.904557138532761e-05
decision_type=2
left_child=-1
right_child=-2
leaf_value=-4.7323914966151026 7.1049388272936431
leaf_weight=4.1067210510373116 0.28651542216539372
leaf_count=172 12
internal_value=-3.93834
internal_weight=0
internal_count=184
is_linear=0
shrinkage=1


Tree=120
num_leaves=9
num_cat=0
split_feature=18 45 27 25 43 38 20 10
split_gain=20.7439 18.0026 11.1926 30.2117 14.3057 7.62905 1.37483 0.377849
threshold=-5.2956486499999995 0.046022391000000135 0.014171372574482767 -0.09353522197633922 1.5294509166666672 7.9060357174451608e-06 -0.00019509508892659723 -1.9684695195361661
decision_type=2 2 2 2 2 2 2 2
left_child=1 2 3 4 -1 -5 -4 -7
right_child=-2 -3 6 5 -6 7 -8 -9
leaf_value=0.89391749605696991 0.88963427639369697 0.88111024518262904 -2.2743746173830499 -0.39393458213474875 -1.2102975763383095 -2.2772450398871631 -1.4694629700336299 -1.8117912483565548
leaf_weight=9.9999999999999982 7.4999999999999991 4.9999999999999991 6.875 3.1250000000000027 4.6874999999999991 8.1249999999999947 3.7499999999999982 4.3750000000000027
leaf_count=32 24 16 22 10 15 26 12 14
internal_value=-0.693147 -0.898638 -1.11889 -0.806774 0.219491 -1.77449 -1.99994 -2.12343
internal_weight=0 45.9375 40.9375 30.3125 14.6875 15.625 10.625 12.5
internal_count=171 147 131 97 47 50 34 40
is_linear=0
shrinkage=1


Tree=121
num_leaves=6
num_cat=0
split_feature=21 38 25 0 13
split_gain=37.4841 24.0807 24.4217 4.89937 3.38033
threshold=6.4749295000000009 4.8307823889103374e-05 -0.093572375220386847 7.5891961197495492 -5.5261739428571452
decision_type=2 2 2 2 2
left_child=1 4 -3 -2 -1
right_child=3 2 -4 -5 -6
leaf_value=-1.2043576525026058 1.6624002886700919 -2.3933180007750097 1.4228527206548358 -0.11738399137236089 -2.4246605762979394
leaf_weight=2.4034407734870902 2.8841289281845084 2.8841289281845093 3.8455052375793448 3.8455052375793457 25.23612812161446
leaf_count=10 12 12 16 16 105
internal_value=-1.34807 -1.90279 -0.215671 0.669333 -2.31667
internal_weight=0 34.3692 6.72963 6.72963 27.6396
internal_count=171 143 28 28 115
is_linear=0
shrinkage=1


Tree=122
num_leaves=4
num_cat=0
split_feature=4 16 40
split_gain=53.4824 19.3391 32.2952
threshold=-0.6498521298301948 -0.00037350953603098978 -4.6218844321430748e-08
decision_type=2 2 2
left_child=-1 2 -2
right_child=1 -3 -4
leaf_value=3.6203544409946682 2.6264023384479644 -3.0228224622921056 -2.9890937205054691
leaf_weight=1.4533568620681787 1.7176035642623899 17.043912291526794 2.3782203197479275
leaf_count=11 13 129 18
internal_value=-2.11918 -2.55198 -0.617436
internal_weight=0 21.1397 4.09582
internal_count=171 160 31
is_linear=0
shrinkage=1


Tree=123
num_leaves=4
num_cat=0
split_feature=29 33 36
split_gain=64.886 51.5898 12.5147
threshold=2.5850783320891373 2.5555123320891373 0.21877021428571428
decision_type=2 2 2
left_child=2 -2 -1
right_child=1 -3 -4
leaf_value=-3.1793387857560935 4.9586270743242871 -3.1126679500800045 0.19524230094546047
leaf_weight=14.935644686222082 2.0366788208484645 1.2446370571851728 1.1314882338047016
leaf_count=132 18 11 10
internal_value=-2.29611 1.91579 -2.9316
internal_weight=0 3.28132 16.0671
internal_count=171 29 142
is_linear=0
shrinkage=1


Tree=124
num_leaves=2
num_cat=0
split_feature=40
split_gain=24.3198
threshold=2.904557138532761e-05
decision_type=2
left_child=-1
right_child=-2
leaf_value=-4.730628817452553 4.1333068405197144
leaf_weight=3.7963293436914682 0.28651542216539372
leaf_count=159 12
internal_value=-3.93834
internal_weight=0
internal_count=171
is_linear=0
shrinkage=1


Tree=125
num_leaves=9
num_cat=0
split_feature=14 13 2 14 38 36 12 1
split_gain=20.8955 20.3977 17.1425 18.3056 8.15206 7.63029 3.44057 0.0142213
threshold=0.0017229909426440353 -6.1271872738095192 0.064547154299380724 0.0046588209950169648 1.616341876941215e-05 0.0025767208928571439 4.6895874285714356 -2.00420313739331
decision_type=2 2 2 2 2 2 2 2
left_child=1 -1 4 6 7 -5 -4 -2
right_child=2 -3 3 5 -6 -7 -8 -9
leaf_value=-1.9372416687489218 -1.9372416687489209 0.89649425370300284 -0.39393458213474869 -0.34056359393380536 -0.69314718055994529 -2.1044206669900078 0.88889081598582298 -2.2793540771116687
leaf_weight=3.1249999999999991 3.1250000000000009 12.499999999999998 3.1250000000000018 4.0624999999999982 4.9999999999999991 5.9375 7.1875 9.375
leaf_count=10 10 40 10 13 16 19 23 30
internal_value=-0.693147 0.324397 -1.04838 -0.425498 -1.77292 -1.38469 0.5083 -2.20311
internal_weight=0 15.625 37.8125 20.3125 17.5 10 10.3125 12.5
internal_count=171 50 121 65 56 32 33 40
is_linear=0
shrinkage=1


Tree=126
num_leaves=7
num_cat=0
split_feature=21 2 44 0 26 0
split_gain=37.4841 17.5013 17.3985 4.89937 3.35785 0.207395
threshold=6.4749295000000009 0.50072277524820297 1.4770721153847065e-06 7.5891961197495492 -0.018281081121676059 7.7219141792733614
decision_type=2 2 2 2 2 2
left_child=1 4 -3 -2 -1 -4
right_child=3 2 5 -5 -6 -7
leaf_value=-1.2043576525026058 1.6624002886700919 -2.3983091047464056 0.17129738045141973 -0.11738399137236089 -2.4243673192089537 0.833596637262082
leaf_weight=2.4034407734870902 2.8841289281845084 3.3648170828819257 2.6437848508358002 3.8455052375793457 23.553719580173496 2.4034407734870911
leaf_count=10 12 14 11 16 98 10
internal_value=-1.34807 -1.90279 -0.655676 0.669333 -2.30942 0.514794
internal_weight=0 34.3692 8.41204 6.72963 25.9572 5.04723
internal_count=171 143 35 28 108 21
is_linear=0
shrinkage=1


Tree=127
num_leaves=4
num_cat=0
split_feature=2 16 17
split_gain=53.4824 19.3391 32.2952
threshold=-0.56013394245418002 -0.00037350953603098978 5.7872198333333342
decision_type=2 2 2
left_child=-1 2 -2
right_child=1 -3 -4
leaf_value=3.6203544409946682 2.6264023384479573 -3.0228224622921056 -2.98909372050547
leaf_weight=1.4533568620681787 1.7176035642623926 17.043912291526794 2.3782203197479248
leaf_count=11 13 129 18
internal_value=-2.11918 -2.55198 -0.617436
internal_weight=0 21.1397 4.09582
internal_count=171 160 31
is_linear=0
shrinkage=1


Tree=128
num_leaves=4
num_cat=0
split_feature=29 0 36
split_gain=64.886 44.4715 12.5147
threshold=2.5850783320891373 7.5565504054638302 0.21877021428571428
decision_type=2 2 2
left_child=2 -2 -1
right_child=1 -3 -4
leaf_value=-3.1793387857560935 4.5397239809585965 -3.1056792474974313 0.19524230094546047
leaf_weight=14.935644686222082 2.1498276442289348 1.1314882338047025 1.1314882338047016
leaf_count=132 19 10 10
internal_value=-2.29611 1.91579 -2.9316
internal_weight=0 3.28132 16.0671
internal_count=171 29 142
is_linear=0
shrinkage=1


Tree=129
num_leaves=2
num_cat=0
split_feature=40
split_gain=24.3198
threshold=2.904557138532761e-05
decision_type=2
left_child=-1
right_child=-2
leaf_value=-4.730628817452553 4.1333068405197144
leaf_weight=3.7963293436914682 0.28651542216539372
leaf_count=159 12
internal_value=-3.93834
internal_weight=0
internal_count=171
is_linear=0
shrinkage=1


Tree=130
num_leaves=10
num_cat=0
split_feature=18 25 36 45 46 10 20 39 2
split_gain=21.0742 19.504 32.7436 24.2046 6.45476 17.5429 3.90441 1.00147 0.752245
threshold=-5.2956486499999995 -0.09353522197633922 0.044880464575963681 0.036771666666666765 -0.022650999999999529 -1.9855246278694996 0.00015329099800619506 -6.712570660619717e-06 0.22242819098632247
decision_type=2 2 2 2 2 2 2 2 2
left_child=1 2 -1 4 8 -6 -3 -8 -4
right_child=-2 6 3 -5 5 -7 7 -9 -10
leaf_value=0.89595135193481357 0.89031863819999113 -0.82217943862446141 -2.2778305384391793 0.87941218619467232 0.86590793755029061 -2.2615362383107027 -2.2766129993198816 -1.6324611647288108 -1.6222810388276621
leaf_weight=11.874999999999998 7.8124999999999991 3.4374999999999991 8.4374999999999982 4.6874999999999991 3.125 4.0625000000000062 7.8124999999999991 4.6874999999999991 3.1249999999999991
leaf_count=38 25 11 27 15 10 13 25 15 10
internal_value=-0.693147 -0.867611 -0.454193 -1.13806 -1.64793 -0.893493 -1.78462 -2.04374 -2.10972
internal_weight=0 51.25 35.3125 23.4375 18.75 7.1875 15.9375 12.5 11.5625
internal_count=189 164 113 75 60 23 51 40 37
is_linear=0
shrinkage=1


Tree=131
num_leaves=7
num_cat=0
split_feature=23 38 25 42 14 10
split_gain=33.2475 31.5078 28.8245 5.43745 5.02827 0.301703
threshold=13.397471650000004 4.8307823889103374e-05 -0.093572375220386847 -1.1094116666666667 0.0017764496527777802 -2.027721877869499
decision_type=2 2 2 2 2 2
left_child=1 3 -3 -1 -2 -4
right_child=4 2 5 -5 -6 -7
leaf_value=-0.94237733951597369 1.2282928227996133 -2.3983091047464051 0.833596637262082 -2.4249513199461257 -0.57115243286017592 1.6624002886700928
leaf_weight=2.6437848508357993 4.326193392276763 3.3648170828819275 2.4034407734870911 27.158880740404133 2.6437848508358002 2.8841289281845075
leaf_count=11 18 14 10 113 11 12
internal_value=-1.34807 -1.80278 -0.130091 -2.2913 0.563262 1.319
internal_weight=0 38.4551 8.65239 29.8027 6.96998 5.28757
internal_count=189 160 36 124 29 22
is_linear=0
shrinkage=1


Tree=132
num_leaves=4
num_cat=0
split_feature=38 6 26
split_gain=63.333 24.5428 12.647
threshold=5.524999999999992e-06 -2.0457101600361658 0.048637031911443092
decision_type=2 2 2
left_child=2 -2 -1
right_child=1 -3 -4
leaf_value=0.20428545879868309 1.3439053345248859 -3.0236963036837072 4.2609868588545163
leaf_weight=2.1139736175537136 1.3212335109710718 20.214872717857361 1.3212335109710696
leaf_count=16 10 153 10
internal_value=-2.11918 -2.74603 1.84805
internal_weight=0 21.5361 3.43521
internal_count=189 163 26
is_linear=0
shrinkage=1


Tree=133
num_leaves=4
num_cat=0
split_feature=3 24 27
split_gain=54.1586 60.5597 9.61524
threshold=-0.4177822038639849 1.6328125106605664 0.018947450228775062
decision_type=2 2 2
left_child=1 -1 -3
right_child=-2 2 -4
leaf_value=-3.1484371362681212 -3.1797399414498377 1.4131580372189667 5.3581005385172293
leaf_weight=2.4892741143703487 15.953984096646307 1.4709347039461138 1.4709347039461134
leaf_count=22 141 13 13
internal_value=-2.29611 0.462223 3.49729
internal_weight=0 5.43114 2.94187
internal_count=189 48 26
is_linear=0
shrinkage=1


Tree=134
num_leaves=2
num_cat=0
split_feature=40
split_gain=26.5673
threshold=2.904557138532761e-05
decision_type=2
left_child=-1
right_child=-2
leaf_value=-4.7331192116139427 4.8120493369786077
leaf_weight=4.2499787621200085 0.26263913698494423
leaf_count=178 11
internal_value=-3.93834
internal_weight=0
internal_count=189
is_linear=0
shrinkage=1


Tree=135
num_leaves=9
num_cat=0
split_feature=14 27 13 41 37 20 20 7
split_gain=20.0682 17.3592 20.1566 20.3139 17.915 7.64664 3.7871 0.42753
threshold=0.0046588209950169648 0.018947450228775062 -5.9740996904761854 0.026977700833333337 -0.35276288845238085 -0.00050735781146404727 0.00085223923481955949 9.7232460871666699
decision_type=2 2 2 2 2 2 2 2
left_child=1 2 -1 -4 -5 -3 -2 -8
right_child=6 5 3 4 -6 -7 7 -9
leaf_value=-1.8713650023421242 -0.82217943862446141 -2.2702396915731606 -1.6324611647288094 -1.6222810388276621 0.90146142493512971 -0.44314718055994523 -1.7326208647704719 -2.2702396915731606
leaf_weight=4.9999999999999956 3.4374999999999991 5.625 4.6875000000000062 3.1249999999999991 24.062500000000004 3.7499999999999982 3.7499999999999982 5.625
leaf_count=16 11 18 15 10 77 12 12 18
internal_value=-0.693147 -0.327056 -0.0174532 0.276312 0.608367 -1.53665 -1.73882 -2.06715
internal_weight=0 46.25 36.875 31.875 27.1875 9.375 12.8125 9.375
internal_count=189 148 118 102 87 30 41 30
is_linear=0
shrinkage=1


Tree=136
num_leaves=7
num_cat=0
split_feature=23 42 20 13 4 17
split_gain=33.2475 26.7921 22.8169 13.5244 6.3505 1.03153
threshold=13.397471650000004 -0.99604304499999985 -0.000499173472109112 -3.6562443452380919 0.090652746347403765 5.9990008333333344
decision_type=2 2 2 2 2 2
left_child=1 2 5 -3 -2 -1
right_child=4 3 -4 -5 -6 -7
leaf_value=0.5425222871072175 -0.537426230710215 -2.4250818083035015 -2.3933180007750101 0.01841492135620526 1.4228527206548349 1.648778353167957
leaf_weight=2.6437848508358002 3.1244730055332175 28.120257049798965 2.8841289281845084 2.4034407734870937 3.8455052375793457 2.4034407734870911
leaf_count=11 13 117 12 10 16 10
internal_value=-1.34807 -1.80278 -0.173013 -2.22913 0.563262 1.10335
internal_weight=0 38.4551 7.93135 30.5237 6.96998 5.04723
internal_count=189 160 33 127 29 21
is_linear=0
shrinkage=1


Tree=137
num_leaves=4
num_cat=0
split_feature=38 1 26
split_gain=63.333 22.239 12.647
threshold=5.524999999999992e-06 -2.0318879594171189 0.048637031911443092
decision_type=2 2 2
left_child=2 -2 -1
right_child=1 -3 -4
leaf_value=0.20428545879868309 0.95964224329829184 -3.0236653893596692 4.2609868588545163
leaf_weight=2.1139736175537136 1.4533568620681787 20.082749366760254 1.3212335109710696
leaf_count=16 11 152 10
internal_value=-2.11918 -2.74603 1.84805
internal_weight=0 21.5361 3.43521
internal_count=189 163 26
is_linear=0
shrinkage=1


Tree=138
num_leaves=4
num_cat=0
split_feature=29 35 36
split_gain=40.3898 70.8625 19.6873
threshold=2.5850783320891373 2.6120223813930235 0.27032936903968269
decision_type=2 2 2
left_child=2 -2 -1
right_child=1 -3 -4
leaf_value=-3.1799022966877648 5.3962012926063334 -3.1426960112057301 1.0416324417335381
leaf_weight=16.406579390168197 1.6972323507070535 2.1498276442289352 1.1314882338047016
leaf_count=145 15 19 10
internal_value=-2.29611 0.661995 -2.89599
internal_weight=0 3.84706 17.5381
internal_count=189 34 155
is_linear=0
shrinkage=1


Tree=139
num_leaves=2
num_cat=0
split_feature=40
split_gain=26.5673
threshold=2.904557138532761e-05
decision_type=2
left_child=-1
right_child=-2
leaf_value=-4.7331192116139427 4.8120493369786077
leaf_weight=4.2499787621200085 0.26263913698494423
leaf_count=178 11
internal_value=-3.93834
internal_weight=0
internal_count=189
is_linear=0
shrinkage=1


Tree=140
num_leaves=8
num_cat=0
split_feature=21 6 36 34 12 39 21
split_gain=16.2836 23.3785 13.5686 19.3821 7.61754 5.96367 5.94646
threshold=6.3040775000000009 -2.0434562632028324 0.10963964202380955 -0.080620217910863004 5.7101090738095364 -8.8313216516622675e-06 4.299165666666668
decision_type=2 2 2 2 2 2 2
left_child=1 6 3 -3 -4 -2 -1
right_child=5 2 4 -5 -6 -7 -8
leaf_value=-2.2734874452102298 -0.93531837053906841 0.89931112255825629 -0.097402499708881263 -1.6823944923878993 -2.0183751440857809 -2.276612999319882 -0.78813398794780809
leaf_weight=6.5624999999999947 5.9375 17.1875 4.0624999999999982 3.4375000000000098 4.0625 7.8124999999999982 4.6875
leaf_count=21 19 55 13 11 13 25 15
internal_value=-0.693147 -0.444708 0.0342834 0.465257 -1.054 -1.70402 -1.66217
internal_weight=0 40 28.75 20.625 8.125 13.75 11.25
internal_count=172 128 92 66 26 44 36
is_linear=0
shrinkage=1


Tree=141
num_leaves=6
num_cat=0
split_feature=23 42 20 10 11
split_gain=47.0239 30.1054 23.2605 5.96019 4.78578
threshold=13.397471650000004 -0.99604304499999985 -0.00070555492722225259 -1.9296375945361663 9.6182318666666689
decision_type=2 2 2 2 2
left_child=1 2 -1 -3 -2
right_child=4 3 -4 -5 -6
leaf_value=1.4568019265259593 1.682602071562737 -2.4245398133470477 -2.3863711417808404 -0.79676679454966892 0.034600856571622707
leaf_weight=4.3261933922767639 4.0858493149280539 24.515095889568329 2.4034407734870902 2.4034407734870937 3.6051611602306366
leaf_count=18 17 102 10 10 15
internal_value=-1.34807 -1.80251 0.0793303 -2.2766 0.930481
internal_weight=0 33.6482 6.72963 26.9185 7.69101
internal_count=172 140 28 112 32
is_linear=0
shrinkage=1


Tree=142
num_leaves=4
num_cat=0
split_feature=38 17 6
split_gain=59.6773 12.1168 9.61161
threshold=5.524999999999992e-06 6.3007527500000009 -2.0456304345361658
decision_type=2 2 2
left_child=1 -1 -2
right_child=2 -3 -4
leaf_value=0.026023847596084781 -0.85277535414296635 4.2609868588545172 -3.0229899411717582
leaf_weight=1.5854802131652859 2.2460969686508205 1.3212335109710693 17.572405695915222
leaf_count=12 17 10 133
internal_value=-2.11918 2.04326 -2.77195
internal_weight=0 2.90671 19.8185
internal_count=172 22 150
is_linear=0
shrinkage=1


Tree=143
num_leaves=3
num_cat=0
split_feature=3 22
split_gain=60.7148 75.9815
threshold=-0.4177822038639849 -3.9018232500000001
decision_type=2 2
left_child=1 -1
right_child=-2 -3
leaf_value=-3.1467019296998369 -3.17919267072 4.6884481130909812
leaf_weight=2.3761252909898758 14.596198216080664 2.4892741143703487
leaf_count=21 129 22
internal_value=-2.29611 0.882078
internal_weight=0 4.8654
internal_count=172 43
is_linear=0
shrinkage=1


Tree=144
num_leaves=2
num_cat=0
split_feature=36
split_gain=26.363
threshold=0.20740473559523817
decision_type=2
left_child=-1
right_child=-2
