tree
version=v3
num_class=5
num_tree_per_iteration=5
label_index=0
max_feature_idx=47
objective=multiclass num_class:5
average_output
feature_names=average_day_max_mean_magn average_day_min_mean_magn average_day_mean_max_magn average_day_mean_min_magn average_mean_magn average_max_magn average_min_magn average_max_min_magn average_lastday_mean_magn average_lastday_max_magn average_lastday_min_magn average_lastday_max_min_magn diff_1_day_max_mean_magn diff_1_day_min_mean_magn diff_1_day_mean_max_magn diff_1_day_mean_min_magn diff_1_mean_magn diff_1_max_magn diff_1_min_magn diff_1_max_min_magn diff_1_lastday_mean_magn diff_1_lastday_max_magn diff_1_lastday_min_magn diff_1_lastday_max_min_magn average_day_max_mean_sound average_day_min_mean_sound average_day_mean_max_sound average_day_mean_min_sound average_mean_sound average_max_sound average_min_sound average_max_min_sound average_lastday_mean_sound average_lastday_max_sound average_lastday_min_sound average_lastday_max_min_sound diff_1_day_max_mean_sound diff_1_day_min_mean_sound diff_1_day_mean_max_sound diff_1_day_mean_min_sound diff_1_mean_sound diff_1_max_sound diff_1_min_sound diff_1_max_min_sound diff_1_lastday_mean_sound diff_1_lastday_max_sound diff_1_lastday_min_sound diff_1_lastday_max_min_sound
feature_infos=[0.67199565740908684:8.1794915145519429] [-1.5443598483409124:-1.0696713425909132] [-0.62343018093257319:2.2031716384854767] [-1.0026616550909131:0.89168822263191372] [-0.67195394986742196:1.1801783184663033] [0.61552065740908657:8.2105206574090861] [-1.5458445414798019:-1.4258853425909133] [2.0414060000000003:9.739495981000001] [-0.73627858800696677:1.9563554980340876] [0.46592065740908661:8.1944236574090858] [-1.5455721895909134:-1.2921753425909133] [1.8918060000000001:9.7393389549999991] [0.82177971428571428:7.8665944671428694] [-7.8691697266666623:-1.1960370000000005] [0.00017991860611794175:0.02426817307692308] [-0.021861961805555538:-0.00021685527447089963] [-0.0030423663282571904:0.0028870379231356576] [0.95602500000000001:9.2147983599999996] [-9.4546419999999998:-3.1444000000000001] [4.1004250000000004:17.694939599999994] [-0.016613419130434768:0.0070421666666666653] [0.69172299999999998:9.1042434399999994] [-9.3375132900000004:-0.88336000000000015] [1.8338310000000002:17.64305461] [-0.085270042525458542:2.2462488000618408] [-0.10393675617221:-0.10047025223974436] [-0.094077254514043196:0.89455743346854677] [-0.10375334686474427:0.10028112751397809] [-0.095173459247059833:0.10621653832070106] [-0.054965237239744259:4.3131752127602567] [-0.10402178723974426:-0.10071779823974426] [0.049056549999999997:4.4164813257999995] [-0.095798348613582079:0.89455743346854677] [-0.069040087239744252:2.0992815460935894] [-0.10402178723974426:-0.096910035239744258] [0.034789135999999998:2.2026916738333338] [0.0053135857142857209:1.2057443976190478] [-0.99211804107142865:-0.0044042484285714296] [4.954897765097415e-07:0.00098862679098679152] [-0.0011240999564444427:-9.8687499999986821e-08] [-0.00013156681853670845:0.00013431808764604152] [0.0070157999999999965:3.962450386] [-3.3458339719999994:-0.0069665000000000005] [0.013982299999999996:7.3082843579999999] [-0.0011240999564444427:0.00020391400394910062] [0.0014201516666666749:1.3029651499999999] [-2.1089839000000001:-0.001799734999999997] [0.0032198866666666714:3.3978405583333333]
tree_sizes=1020 543 449 342 540 1036 543 448 448 551 848 547 450 446 549 941 549 450 446 547 945 540 451 446 549 860 546 547 446 546 930 538 547 446 546 945 538 546 448 541

Tree=0
num_leaves=9
num_cat=0
split_feature=16 34 47 41 9 15 38 0
split_gain=27.7378 25.3941 17.6096 10.4138 23.4311 5.98842 0.492514 0.684806
threshold=0.00011099779036356524 -0.10102521557307757 0.12218660700000049 0.041439889166666709 6.441378157409086 -0.001278103665971896 2.3770670522083001e-05 7.9787283955043273
decision_type=2 2 2 2 2 2 2 2
left_child=1 2 3 4 -1 6 -5 -8
right_child=-2 -3 -4 5 -6 -7 7 -9
leaf_value=-2.2657065473145632 0.89153617731928858 0.88394533045327039 0.86590793755029105 -2.2832800078844233 0.87941218619467187 -0.80256967296116088 -2.2558711948968631 -1.5858025477915836
leaf_weight=4.6874999999999982 8.4374999999999982 5.6249999999999991 3.1249999999999991 13.124999999999998 4.6875 4.0625000000000062 3.4374999999999991 4.375
leaf_count=15 27 18 10 42 15 13 11 14
internal_value=-0.693147 -1.08574 -1.38423 -1.5922 -0.693147 -1.92868 -2.14401 -1.89505
internal_weight=0 43.125 37.5 34.375 9.375 25 20.9375 7.8125
internal_count=165 138 120 110 30 80 67 25
is_linear=0
shrinkage=1


Tree=1
num_leaves=4
num_cat=0
split_feature=15 7 7
split_gain=45.0547 36.3334 33.9161
threshold=-0.0043531930852258177 9.7018083013333332 9.7252383200000025
decision_type=2 2 2
left_child=1 -1 -2
right_child=2 -3 -4
leaf_value=-2.8210119325206877 -2.8773193159793444 3.1950219090924694 1.743881745636332
leaf_weight=1.5259537100791956 19.227016746997837 2.7467166781425476 1.6785490810871113
leaf_count=10 126 18 11
internal_value=-1.94957 1.04964 -2.49596
internal_weight=0 4.27267 20.9056
internal_count=165 28 137
is_linear=0
shrinkage=1


Tree=2
num_leaves=3
num_cat=0
split_feature=2 46
split_gain=63.4717 34.8106
threshold=-0.49043296194329183 -0.0046076041666666739
decision_type=2 2
left_child=-1 -2
right_child=1 -3
leaf_value=3.6046781105207808 -2.9949750066211016 1.3083031123575268
leaf_weight=1.7662101686000848 18.613137930631641 2.0379348099231711
leaf_count=13 137 15
internal_value=-2.08677 -2.56072
internal_weight=0 20.6511
internal_count=165 152
is_linear=0
shrinkage=1


Tree=3
num_leaves=2
num_cat=0
split_feature=5
split_gain=68.3704
threshold=8.1834273240757547
decision_type=2
left_child=-1
right_child=-2
leaf_value=-3.4727712222548353 3.0868823811722166
leaf_weight=12.17965793609619 1.7762001156806952
leaf_count=144 21
internal_value=-2.6174
internal_weight=0
internal_count=165
is_linear=0
shrinkage=1


Tree=4
num_leaves=4
num_cat=0
split_feature=22 0 17
split_gain=37.6457 43.7854 43.5064
threshold=-6.4491834166666662 6.3697355978852785 7.098967933333336
decision_type=2 2 2
left_child=2 -2 -1
right_child=1 -3 -4
leaf_value=3.0558646451450056 2.043253810624595 -2.7772430636390415 -2.7383959415651202
leaf_weight=3.0329266190528896 2.021951079368594 20.556502640247345 2.1904470026493073
leaf_count=18 12 122 13
internal_value=-1.82894 -2.33575 0.630948
internal_weight=0 22.5785 5.22337
internal_count=165 134 31
is_linear=0
shrinkage=1


Tree=5
num_leaves=9
num_cat=0
split_feature=16 25 46 44 25 2 3 41
split_gain=27.7378 22.1675 17.0029 8.63848 21.5261 4.51814 1.85455 1.72955
threshold=0.00011099779036356524 -0.10107504184688711 -0.054831104499999998 -2.8896000786939045e-06 -0.10149531652545844 0.35514291322805353 -0.15133262408005274 0.058650671000000015
decision_type=2 2 2 2 2 2 2 2
left_child=1 2 -1 7 5 -5 -6 -4
right_child=-2 -3 3 4 6 -7 -8 -9
leaf_value=0.86590793755029105 0.89153617731928858 0.88111024518262904 -2.2819523474060164 0.87747428836660857 -2.2751851771057141 -0.69314718055994529 -1.3073204089064003 -1.5653938765951876
leaf_weight=3.1249999999999991 8.4374999999999982 4.9999999999999991 11.562499999999998 4.3749999999999991 7.1874999999999973 3.125 3.125000000000008 5.6249999999999991
leaf_count=10 27 16 37 14 23 10 10 18
internal_value=-0.693147 -1.08574 -1.34672 -1.54764 -1.05424 0.227383 -1.9911 -2.05355
internal_weight=0 43.125 38.125 35 17.8125 7.5 10.3125 17.1875
internal_count=165 138 122 112 57 24 33 55
is_linear=0
shrinkage=1


Tree=6
num_leaves=4
num_cat=0
split_feature=15 9 7
split_gain=45.0547 37.4981 36.3334
threshold=-0.0043531930852258177 8.1745961574090877 9.7018083013333332
decision_type=2 2 2
left_child=2 -2 -1
right_child=1 -3 -4
leaf_value=-2.8210119325206877 -2.8773586879074768 2.1918256587579377 3.1950219090924694
leaf_weight=1.5259537100791956 19.379612118005756 1.525953710079192 2.7467166781425476
leaf_count=10 127 10 18
internal_value=-1.94957 -2.49596 1.04964
internal_weight=0 20.9056 4.27267
internal_count=165 137 28
is_linear=0
shrinkage=1


Tree=7
num_leaves=3
num_cat=0
split_feature=2 47
split_gain=63.4717 37.5081
threshold=-0.49043296194329183 0.0069933850000000056
decision_type=2 2
left_child=-1 -2
right_child=1 -3
leaf_value=3.6046781105207808 1.6081637891428149 -2.9950120525308925
leaf_weight=1.7662101686000848 1.9020724892616296 18.749000251293182
leaf_count=13 14 138
internal_value=-2.08677 -2.56072
internal_weight=0 20.6511
internal_count=165 152
is_linear=0
shrinkage=1


Tree=8
num_leaves=3
num_cat=0
split_feature=40 4
split_gain=61.6931 62.8609
threshold=-1.9442223798619106e-06 0.56996993295253551
decision_type=2 2
left_child=1 -1
right_child=-2 -3
leaf_value=-3.3853751662621647 -3.4726643895732132 7.7810870053372412
leaf_weight=0.93039053678512651 12.010496020317076 1.0149714946746824
leaf_count=11 142 12
internal_value=-2.6174 2.53013
internal_weight=0 1.94536
internal_count=165 23
is_linear=0
shrinkage=1


Tree=9
num_leaves=4
num_cat=0
split_feature=26 35 20
split_gain=36.8243 39.7911 12.9795
threshold=-0.093491069291322129 2.1889605116666671 0.00085365986137059583
decision_type=2 2 2
left_child=-1 2 -2
right_child=1 -3 -4
leaf_value=2.4703889361297549 -2.7772039949813565 1.7833617735668721 -0.62980017579834224
leaf_weight=1.8534551560878778 20.388006716966636 2.3589429259300223 3.201422542333602
leaf_count=11 121 14 19
internal_value=-1.82894 -2.08587 -2.48174
internal_weight=0 25.9484 23.5894
internal_count=165 154 140
is_linear=0
shrinkage=1


Tree=10
num_leaves=7
num_cat=0
split_feature=20 10 12 29 39 18
split_gain=32.1344 34.1663 11.6975 8.02929 4.31983 0.928875
threshold=-0.00015147439419225381 -1.5397366755909132 4.2573339121428679 1.9115732127602563 -4.2957475632442208e-06 -6.0028327166666644
decision_type=2 2 2 2 2 2
left_child=1 -1 -2 4 5 -3
right_child=2 3 -4 -5 -6 -7
leaf_value=0.88394533045327039 -0.86054806161721387 -2.2859944983040985 0.89534839466129357 -0.59816037317208248 -1.0457307671860847 -1.6222810388276621
leaf_weight=5.6249999999999991 5.6250000000000027 18.125000000000007 11.249999999999998 4.6874999999999991 4.0625000000000027 3.1249999999999991
leaf_count=18 18 58 36 15 13 10
internal_value=-0.693147 -1.36449 0.30833 -1.78965 -2.01202 -2.19315
internal_weight=0 35.625 16.875 30 25.3125 21.25
internal_count=168 114 54 96 81 68
is_linear=0
shrinkage=1


Tree=11
num_leaves=4
num_cat=0
split_feature=32 7 43
split_gain=62.8822 28.4956 9.39641
threshold=0.088400277319159212 9.7261649245000008 0.88251340476190487
decision_type=2 2 2
left_child=1 2 -1
right_child=-2 -3 -4
leaf_value=-2.8774356051509224 2.7893582757004358 1.3686107923582977 -0.34631995707934182
leaf_weight=19.684802860021602 2.5941213071346274 1.8311444520950306 1.525953710079192
leaf_count=129 17 12 10
internal_value=-1.94957 -2.35848 -2.68965
internal_weight=0 23.0419 21.2108
internal_count=168 151 139
is_linear=0
shrinkage=1


Tree=12
num_leaves=3
num_cat=0
split_feature=2 46
split_gain=87.595 27.5238
threshold=-0.49043296194329183 -0.0046076041666666739
decision_type=2 2
left_child=-1 -2
right_child=1 -3
leaf_value=4.1819561141632704 -2.9950120525308921 0.82936094538990623
leaf_weight=2.0379348099231747 18.749000251293189 2.0379348099231676
leaf_count=15 138 15
internal_value=-2.08677 -2.61158
internal_weight=0 20.7869
internal_count=168 153
is_linear=0
shrinkage=1


Tree=13
num_leaves=3
num_cat=0
split_feature=40 13
split_gain=88.621 2.6216
threshold=-1.9442223798619106e-06 -5.8378047990476167
decision_type=2 2
left_child=1 -1
right_child=-2 -3
leaf_value=5.442434420967734 -3.4728751398169049 2.1471333085391988
leaf_weight=0.84580957889556874 12.348819851875303 1.0149714946746833
leaf_count=10 146 12
internal_value=-2.6174 3.84287
internal_weight=0 1.86078
internal_count=168 22
is_linear=0
shrinkage=1


Tree=14
num_leaves=4
num_cat=0
split_feature=26 22 17
split_gain=62.0908 30.1826 38.5366
threshold=-0.093491069291322129 -6.4491834166666662 7.1643495733333333
decision_type=2 2 2
left_child=-1 2 -2
right_child=1 -3 -4
leaf_value=3.0287213282141607 3.0193838105004476 -2.7774291996241036 -2.7414446095554559
leaf_weight=2.3589429259300259 2.1904470026493099 21.398982256650925 2.3589429259300232
leaf_count=14 13 127 14
internal_value=-1.82894 -2.27819 0.0439695
internal_weight=0 25.9484 4.54939
internal_count=168 154 27
is_linear=0
shrinkage=1


Tree=15
num_leaves=8
num_cat=0
split_feature=20 10 14 29 39 18 3
split_gain=32.1344 34.1663 9.16922 8.02929 4.31983 0.928875 0.856496
threshold=-0.00015147439419225381 -1.5397366755909132 0.0010093312068819756 1.9115732127602563 -4.2957475632442208e-06 -6.0028327166666644 -0.30650294752023194
decision_type=2 2 2 2 2 2 2
left_child=1 -1 6 4 5 -3 -2
right_child=2 3 -4 -5 -6 -7 -8
leaf_value=0.88394533045327039 -0.27737657124094894 -2.2859944983040985 0.89430758421689405 -0.59816037317208248 -1.0457307671860847 -1.6222810388276621 -0.99235977898514183
leaf_weight=5.6249999999999991 3.4375 18.125000000000007 10.312499999999998 4.6874999999999991 4.0625000000000027 3.1249999999999991 3.1250000000000027
leaf_count=18 11 58 33 15 13 10 10
internal_value=-0.693147 -1.36449 0.30833 -1.78965 -2.01202 -2.19315 -0.625094
internal_weight=0 35.625 16.875 30 25.3125 21.25 6.5625
internal_count=168 114 54 96 81 68 21
is_linear=0
shrinkage=1


Tree=16
num_leaves=4
num_cat=0
split_feature=27 13 41
split_gain=62.7552 51.9033 8.44718
threshold=0.065521944201490781 -6.0126920476190486 0.35345791666666665
decision_type=2 2 2
left_child=2 -2 -1
right_child=1 -3 -4
leaf_value=-2.8770252353925057 -2.8381314069480621 3.3124004727590428 -0.57019775824696861
leaf_weight=18.158849149942405 2.1363351941108704 3.6622889041900626 1.6785490810871113
leaf_count=119 14 24 11
internal_value=-1.94957 1.04964 -2.67634
internal_weight=0 5.79862 19.8374
internal_count=168 38 130
is_linear=0
shrinkage=1


Tree=17
num_leaves=3
num_cat=0
split_feature=2 46
split_gain=87.595 27.5238
threshold=-0.49043296194329183 -0.0046076041666666739
decision_type=2 2
left_child=-1 -2
right_child=1 -3
leaf_value=4.1819561141632704 -2.9950120525308921 0.82936094538990623
leaf_weight=2.0379348099231747 18.749000251293189 2.0379348099231676
leaf_count=15 138 15
internal_value=-2.08677 -2.61158
internal_weight=0 20.7869
internal_count=168 153
is_linear=0
shrinkage=1


Tree=18
num_leaves=3
num_cat=0
split_feature=40 13
split_gain=88.621 2.6216
threshold=-1.9442223798619106e-06 -5.8378047990476167
decision_type=2 2
left_child=1 -1
right_child=-2 -3
leaf_value=5.442434420967734 -3.4728751398169049 2.1471333085391988
leaf_weight=0.84580957889556874 12.348819851875303 1.0149714946746833
leaf_count=10 146 12
internal_value=-2.6174 3.84287
internal_weight=0 1.86078
internal_count=168 22
is_linear=0
shrinkage=1


Tree=19
num_leaves=4
num_cat=0
split_feature=4 22 17
split_gain=62.0908 30.1826 38.5366
threshold=-0.58429589848473806 -6.4491834166666662 7.1643495733333333
decision_type=2 2 2
left_child=-1 2 -2
right_child=1 -3 -4
leaf_value=3.0287213282141607 3.0193838105004476 -2.7774291996241036 -2.7414446095554559
leaf_weight=2.3589429259300259 2.1904470026493099 21.398982256650925 2.3589429259300232
leaf_count=14 13 127 14
internal_value=-1.82894 -2.27819 0.0439695
internal_weight=0 25.9484 4.54939
internal_count=168 154 27
is_linear=0
shrinkage=1


Tree=20
num_leaves=8
num_cat=0
split_feature=10 16 47 44 42 9 4
split_gain=30.3375 23.5699 17.3869 9.21143 22.4059 4.91454 1.33764
threshold=-1.5397366755909132 0.00012752444465593385 0.11737560200000001 -2.8896000786939045e-06 -0.0466388119 7.743435657409087 0.042173255197147132
decision_type=2 2 2 2 2 2 2
left_child=-1 2 3 6 5 -5 -2
right_child=1 -3 -4 4 -6 -7 -8
leaf_value=0.89350237014608791 -2.2825240957795572 0.8826103951976304 0.86590793755029105 -2.1600102144332882 0.87747428836660724 -0.69314718055994529 -1.5858025477915838
leaf_weight=9.6874999999999982 12.187499999999998 5.3124999999999991 3.1249999999999991 8.4374999999999982 4.3750000000000027 3.1249999999999991 4.3749999999999991
leaf_count=31 39 17 10 27 14 10 14
internal_value=-0.693147 -1.07009 -1.36449 -1.58255 -1.03404 -1.76527 -2.10473
internal_weight=0 40.9375 35.625 32.5 15.9375 11.5625 16.5625
internal_count=162 131 114 104 51 37 53
is_linear=0
shrinkage=1


Tree=21
num_leaves=4
num_cat=0
split_feature=7 10 2
split_gain=41.1534 51.5009 8.18596
threshold=9.7018083013333332 -1.5364074075909131 0.30036149977572663
decision_type=2 2 2
left_child=-1 -2 -3
right_child=1 2 -4
leaf_value=-2.876431850683367 -2.857328261917766 3.195021909092473 0.30542821870075598
leaf_weight=16.32770469784737 3.8148842751979828 2.7467166781425458 1.8311444520950315
leaf_count=107 25 18 12
internal_value=-1.94957 -0.158498 2.08684
internal_weight=0 8.39275 4.57786
internal_count=162 55 30
is_linear=0
shrinkage=1


Tree=22
num_leaves=3
num_cat=0
split_feature=45 38
split_gain=49.8594 74.9499
threshold=0.0094899737500000001 2.130874268448026e-05
decision_type=2 2
left_child=1 -1
right_child=-2 -3
leaf_value=-2.9712047320768882 -2.9940499642170217 3.9087068944307601
leaf_weight=3.2606956958770779 15.760029196739195 2.9889710545539856
leaf_count=24 116 22
internal_value=-2.08677 0.332721
internal_weight=0 6.24967
internal_count=162 46
is_linear=0
shrinkage=1


Tree=23
num_leaves=3
num_cat=0
split_feature=5 20
split_gain=57.2768 56.9774
threshold=8.1834273240757547 -0.0010924776054343055
decision_type=2 2
left_child=-1 -2
right_child=1 -3
leaf_value=-3.4726098414595277 7.7326433732229187 -3.3764042087208219
leaf_weight=11.925915062427519 0.93039053678512573 0.84580957889556951
leaf_count=141 11 10
internal_value=-2.6174 2.5393
internal_weight=0 1.7762
internal_count=162 21
is_linear=0
shrinkage=1


Tree=24
num_leaves=4
num_cat=0
split_feature=4 33 18
split_gain=52.1393 22.8733 8.60091
threshold=-0.58429589848473806 2.0108115460935894 -8.3855514799999984
decision_type=2 2 2
left_child=-1 2 -2
right_child=1 -3 -4
leaf_value=2.6136014766650622 -0.84298258728518305 0.78768623269604454 -2.7771642767855935
leaf_weight=2.3589429259300259 2.5274388492107454 2.1904470026493064 20.219510793685913
leaf_count=14 15 13 120
internal_value=-1.82894 -2.25781 -2.55837
internal_weight=0 24.9374 22.7469
internal_count=162 148 135
is_linear=0
shrinkage=1


Tree=25
num_leaves=7
num_cat=0
split_feature=10 16 39 46 16 29
split_gain=30.3375 23.5699 19.3418 15.6393 5.31878 0.751252
threshold=-1.5397366755909132 0.00012752444465593385 -3.3454307829421681e-06 -0.041737225499999996 -0.00016234535638888153 1.9171607127602563
decision_type=2 2 2 2 2 2
left_child=-1 2 3 -2 -5 -6
right_child=1 -3 -4 4 5 -7
leaf_value=0.89350237014608791 -0.049790537203301399 0.8826103951976304 0.86957683377697237 -1.0367595153617075 -2.2309738655668219 -1.6222810388276621
leaf_weight=9.6874999999999982 5.3124999999999956 5.3124999999999991 3.4374999999999991 5.6249999999999991 18.125000000000011 3.1249999999999991
leaf_count=31 17 17 11 18 58 10
internal_value=-0.693147 -1.07009 -1.36449 -1.60668 -1.91692 -2.1462
internal_weight=0 40.9375 35.625 32.1875 26.875 21.25
internal_count=162 131 114 103 86 68
is_linear=0
shrinkage=1


Tree=26
num_leaves=4
num_cat=0
split_feature=15 7 8
split_gain=44.8924 44.5724 21.0411
threshold=-0.0043531930852258177 9.7018083013333332 0.8466815993030361
decision_type=2 2 2
left_child=1 -1 -2
right_child=2 -3 -4
leaf_value=-2.8309603735889857 -2.8771973692366482 3.5457532242239393 0.92275285083929837
leaf_weight=1.8311444520950342 18.769230633974079 2.5941213071346283 1.525953710079192
leaf_count=12 123 17 10
internal_value=-1.94957 0.915573 -2.58267
internal_weight=0 4.42527 20.2952
internal_count=162 29 133
is_linear=0
shrinkage=1


Tree=27
num_leaves=4
num_cat=0
split_feature=45 19 14
split_gain=49.8594 57.7962 2.33877
threshold=0.0094899737500000001 12.860707083333333 0.0025421739660353754
decision_type=2 2 2
left_child=1 -1 -3
right_child=-2 2 -4
leaf_value=-2.967147794060097 -2.9940499642170217 4.1386988582037292 1.9528868591990349
leaf_weight=2.8531087338924435 15.760029196739195 1.6303478479385376 1.7662101686000824
leaf_count=21 116 12 13
internal_value=-2.08677 0.332721 3.09168
internal_weight=0 6.24967 3.39656
internal_count=162 46 25
is_linear=0
shrinkage=1


Tree=28
num_leaves=3
num_cat=0
split_feature=5 20
split_gain=57.2768 56.9774
threshold=8.1834273240757547 -0.0010924776054343055
decision_type=2 2
left_child=-1 -2
right_child=1 -3
leaf_value=-3.4726098414595277 7.7326433732229187 -3.3764042087208219
leaf_weight=11.925915062427519 0.93039053678512573 0.84580957889556951
leaf_count=141 11 10
internal_value=-2.6174 2.5393
internal_weight=0 1.7762
internal_count=162 21
is_linear=0
shrinkage=1


Tree=29
num_leaves=4
num_cat=0
split_feature=3 22 17
split_gain=52.1393 26.2786 36.899
threshold=-0.72797959520364974 -6.4491834166666662 7.1643495733333333
decision_type=2 2 2
left_child=-1 2 -2
right_child=1 -3 -4
leaf_value=2.6136014766650622 2.6136014766650622 -2.7770828258908065 -2.7464195121856614
leaf_weight=2.3589429259300259 2.3589429259300259 19.882518947124481 2.6959347724914551
leaf_count=14 14 118 16
internal_value=-1.82894 -2.25781 -0.235858
internal_weight=0 24.9374 5.05488
internal_count=162 148 30
is_linear=0
shrinkage=1


Tree=30
num_leaves=8
num_cat=0
split_feature=16 24 10 20 5 42 6
split_gain=26.2674 19.4936 16.979 8.66125 18.8976 5.11108 2.01031
threshold=0.00011099779036356524 1.9063339599257869 -1.5397366755909132 -0.00015147439419225381 8.1667206574090887 -0.068764116666666653 -1.539747192590913
decision_type=2 2 2 2 2 2 2
left_child=1 2 -1 5 -5 -4 -7
right_child=-2 -3 3 4 -6 6 -8
leaf_value=0.86590793755029105 0.89031863819999113 0.87747428836660857 -0.96354345095621574 0.87524187719081359 -2.0546247531193118 -1.3073204089064019 -2.2251261120874091
leaf_weight=3.1249999999999991 7.8124999999999991 4.3749999999999991 5.3124999999999991 4.0625000000000018 4.6875 3.1249999999999991 16.562500000000004
leaf_count=10 25 14 17 13 15 10 53
internal_value=-0.693147 -1.10356 -1.34176 -1.54966 -0.693147 -1.84884 -2.0839
internal_weight=0 41.25 36.875 33.75 8.75 25 19.6875
internal_count=157 132 118 108 28 80 63
is_linear=0
shrinkage=1


Tree=31
num_leaves=4
num_cat=0
split_feature=7 29 18
split_gain=42.7159 57.299 4.088
threshold=9.7018083013333332 1.9058689270459699 -7.5959904000000007
decision_type=2 2 2
left_child=-1 2 -2
right_child=1 -3 -4
leaf_value=-2.876431850683367 3.5294176547035345 -2.8563004530101637 1.1653618696655059
leaf_weight=16.32770469784737 2.2889305651187897 3.6622889041900635 1.6785490810871118
leaf_count=107 15 24 11
internal_value=-1.94957 -0.0181005 2.5929
internal_weight=0 7.62977 3.96748
internal_count=157 50 26
is_linear=0
shrinkage=1


Tree=32
num_leaves=4
num_cat=0
split_feature=45 4 45
split_gain=41.5361 46.0237 6.3869
threshold=0.0094899737500000001 -0.2632093217913149 0.0093140054166666753
decision_type=2 2 2
left_child=1 2 -1
right_child=-2 -3 -4
leaf_value=1.0958877195538301 -2.9938345644405642 -2.9655299057064841 4.1192062118597752
leaf_weight=1.9020724892616272 15.216579914093016 2.7172464132308987 1.4944855272769928
leaf_count=14 112 20 11
internal_value=-2.08677 0.0817079 2.51139
internal_weight=0 6.1138 3.39656
internal_count=157 45 25
is_linear=0
shrinkage=1


Tree=33
num_leaves=3
num_cat=0
split_feature=5 15
split_gain=64.362 59.6709
threshold=8.1834273240757547 -0.0026923951829492835
decision_type=2 2
left_child=-1 -2
right_child=1 -3
leaf_value=-3.4722656562411607 7.7810870053372412 -3.3764042087208219
leaf_weight=11.418429315090178 1.0149714946746824 0.84580957889556962
leaf_count=135 12 10
internal_value=-2.6174 2.79618
internal_weight=0 1.86078
internal_count=157 22
is_linear=0
shrinkage=1


Tree=34
num_leaves=4
num_cat=0
split_feature=3 22 3
split_gain=48.1445 53.1489 10.2878
threshold=-0.72797959520364974 -6.2617487499999998 -0.27527417234526241
decision_type=2 2 2
left_child=-1 2 -2
right_child=1 -3 -4
leaf_value=2.6136014766650622 2.980489154965869 -2.7770410588429479 -0.23361393583334733
leaf_weight=2.3589429259300259 1.6849592328071592 19.714023023843765 2.6959347724914577
leaf_count=14 10 117 16
internal_value=-1.82894 -2.07386 1.05419
internal_weight=0 24.0949 4.38089
internal_count=157 143 26
is_linear=0
shrinkage=1


Tree=35
num_leaves=8
num_cat=0
split_feature=16 39 34 20 7 31 23
split_gain=26.2674 21.0869 21.2032 8.53402 18.0741 6.01668 0.904623
threshold=0.00011099779036356524 -3.7884124523781196e-06 -0.10102521557307757 -0.00015147439419225381 9.7083213783333342 2.0137963643000005 8.3403920833333345
decision_type=2 2 2 2 2 2 2
left_child=1 2 3 5 -5 6 -1
right_child=-2 -3 -4 4 -6 -7 -8
leaf_value=-1.6222810388276607 0.89031863819999113 0.87941218619467232 0.87264229312426533 0.87264229312426422 -2.0546247531193118 -0.96354345095621574 -2.2850158279407116
leaf_weight=3.1250000000000027 7.8124999999999991 4.6874999999999991 3.7499999999999991 3.7500000000000018 4.6875 5.3124999999999991 15.937499999999998
leaf_count=10 25 15 12 12 15 17 51
internal_value=-0.693147 -1.10356 -1.36095 -1.61974 -0.746166 -1.91935 -2.1817
internal_weight=0 41.25 36.5625 32.8125 8.4375 24.375 19.0625
internal_count=157 132 117 105 27 78 61
is_linear=0
shrinkage=1


Tree=36
num_leaves=4
num_cat=0
split_feature=7 29 18
split_gain=42.7159 57.299 4.088
threshold=9.7018083013333332 1.9058689270459699 -7.5959904000000007
decision_type=2 2 2
left_child=-1 2 -2
right_child=1 -3 -4
leaf_value=-2.876431850683367 3.5294176547035345 -2.8563004530101637 1.1653618696655059
leaf_weight=16.32770469784737 2.2889305651187897 3.6622889041900635 1.6785490810871118
leaf_count=107 15 24 11
internal_value=-1.94957 -0.0181005 2.5929
internal_weight=0 7.62977 3.96748
internal_count=157 50 26
is_linear=0
shrinkage=1


Tree=37
num_leaves=4
num_cat=0
split_feature=45 38 1
split_gain=41.5361 54.9839 2.72236
threshold=0.0094899737500000001 2.130874268448026e-05 -1.5386533020988493
decision_type=2 2 2
left_child=1 -1 -3
right_child=-2 2 -4
leaf_value=-2.9686210215647928 -2.9938345644405642 4.1192062118597743 1.7582393037643369
leaf_weight=2.9889710545539883 15.216579914093016 1.494485527276993 1.6303478479385374
leaf_count=22 112 11 12
internal_value=-2.08677 0.0817079 2.9831
internal_weight=0 6.1138 3.12483
internal_count=157 45 23
is_linear=0
shrinkage=1


Tree=38
num_leaves=3
num_cat=0
split_feature=40 8
split_gain=64.362 59.6709
threshold=-1.9442223798619106e-06 0.57085227646506398
decision_type=2 2
left_child=1 -1
right_child=-2 -3
leaf_value=-3.3764042087208219 -3.4722656562411607 7.7810870053372412
leaf_weight=0.84580957889556962 11.418429315090178 1.0149714946746824
leaf_count=10 135 12
internal_value=-2.6174 2.79618
internal_weight=0 1.86078
internal_count=157 22
is_linear=0
shrinkage=1


Tree=39
num_leaves=4
num_cat=0
split_feature=9 22 9
split_gain=48.1445 53.1489 10.2878
threshold=5.390806907409087 -6.2617487499999998 7.6308527407424211
decision_type=2 2 2
left_child=-1 2 -2
right_child=1 -3 -4
leaf_value=2.6136014766650622 2.980489154965861 -2.7770410588429479 -0.23361393583334578
leaf_weight=2.3589429259300259 1.6849592328071619 19.714023023843765 2.6959347724914551
leaf_count=14 10 117 16
internal_value=-1.82894 -2.07386 1.05419
internal_weight=0 24.0949 4.38089
internal_count=157 143 26
is_linear=0
shrinkage=1


end of trees

feature_importances:
average_max_min_magn=9
diff_1_mean_magn=7
diff_1_lastday_mean_magn=7
average_day_mean_max_magn=6
average_lastday_min_magn=6
diff_1_lastday_min_magn=6
average_day_mean_min_magn=5
average_mean_magn=5
average_max_magn=5
average_lastday_max_magn=5
diff_1_day_mean_min_magn=5
diff_1_min_magn=5
average_max_sound=5
diff_1_lastday_max_sound=5
diff_1_lastday_min_sound=5
diff_1_max_magn=4
diff_1_day_mean_min_sound=4
diff_1_mean_sound=4
diff_1_day_min_mean_magn=3
diff_1_day_mean_max_sound=3
diff_1_max_sound=3
diff_1_lastday_max_min_sound=3
average_day_max_mean_magn=2
average_lastday_mean_magn=2
diff_1_day_mean_max_magn=2
average_day_min_mean_sound=2
average_day_mean_max_sound=2
average_lastday_min_sound=2
diff_1_min_sound=2
diff_1_lastday_mean_sound=2
average_day_min_mean_magn=1
average_min_magn=1
diff_1_day_max_mean_magn=1
diff_1_max_min_magn=1
diff_1_lastday_max_min_magn=1
average_day_max_mean_sound=1
average_day_mean_min_sound=1
average_max_min_sound=1
average_lastday_mean_sound=1
average_lastday_max_sound=1
average_lastday_max_min_sound=1
diff_1_max_min_sound=1

parameters:
[boosting: rf]
[objective: multiclass]
[metric: multi_logloss]
[tree_learner: serial]
[device_type: cpu]
[linear_tree: 0]
[data: ]
[valid: ]
[num_iterations: 5000]
[learning_rate: 0.05]
[num_leaves: 48]
[num_threads: -1]
[deterministic: 0]
[force_col_wise: 0]
[force_row_wise: 0]
[histogram_pool_size: -1]
[max_depth: -1]
[min_data_in_leaf: 10]
[min_sum_hessian_in_leaf: 0.001]
[bagging_fraction: 0.6]
[pos_bagging_fraction: 1]
[neg_bagging_fraction: 1]
[bagging_freq: 2]
[bagging_seed: 3]
[feature_fraction: 0.6]
[feature_fraction_bynode: 1]
[feature_fraction_seed: 2]
[extra_trees: 0]
[extra_seed: 6]
[early_stopping_round: 500]
[first_metric_only: 0]
[max_delta_step: 0]
[lambda_l1: 0.05]
[lambda_l2: 0.05]
[linear_lambda: 0]
[min_gain_to_split: 0]
[drop_rate: 0.1]
[max_drop: 50]
[skip_drop: 0.5]
[xgboost_dart_mode: 0]
[uniform_drop: 0]
[drop_seed: 4]
[top_rate: 0.2]
[other_rate: 0.1]
[min_data_per_group: 100]
[max_cat_threshold: 32]
[cat_l2: 10]
[cat_smooth: 10]
[max_cat_to_onehot: 4]
[top_k: 20]
[monotone_constraints: ]
[monotone_constraints_method: basic]
[monotone_penalty: 0]
[feature_contri: ]
[forcedsplits_filename: ]
[refit_decay_rate: 0.9]
[cegb_tradeoff: 1]
[cegb_penalty_split: 0]
[cegb_penalty_feature_lazy: ]
[cegb_penalty_feature_coupled: ]
[path_smooth: 0]
[interaction_constraints: ]
[verbosity: -1]
[saved_feature_importance_type: 0]
[max_bin: 200]
[max_bin_by_feature: ]
[min_data_in_bin: 3]
[bin_construct_sample_cnt: 200000]
[data_random_seed: 1]
[is_enable_sparse: 1]
[enable_bundle: 1]
[use_missing: 1]
[zero_as_missing: 0]
[feature_pre_filter: 1]
[pre_partition: 0]
[two_round: 0]
[header: 0]
[label_column: ]
[weight_column: ]
[group_column: ]
[ignore_column: ]
[categorical_feature: ]
[forcedbins_filename: ]
[objective_seed: 5]
[num_class: 5]
[is_unbalance: 0]
[scale_pos_weight: 1]
[sigmoid: 1]
[boost_from_average: 1]
[reg_sqrt: 0]
[alpha: 0.9]
[fair_c: 1]
[poisson_max_delta_step: 0.7]
[tweedie_variance_power: 1.5]
[lambdarank_truncation_level: 30]
[lambdarank_norm: 1]
[label_gain: ]
[eval_at: ]
[multi_error_top_k: 1]
[auc_mu_weights: ]
[num_machines: 1]
[local_listen_port: 12400]
[time_out: 120]
[machine_list_filename: ]
[machines: ]
[gpu_platform_id: -1]
[gpu_device_id: -1]
[gpu_use_dp: 0]
[num_gpu: 1]

end of parameters

pandas_categorical:[]
