tree
version=v3
num_class=5
num_tree_per_iteration=5
label_index=0
max_feature_idx=47
objective=multiclass num_class:5
average_output
feature_names=average_day_max_mean_magn average_day_min_mean_magn average_day_mean_max_magn average_day_mean_min_magn average_mean_magn average_max_magn average_min_magn average_max_min_magn average_lastday_mean_magn average_lastday_max_magn average_lastday_min_magn average_lastday_max_min_magn diff_1_day_max_mean_magn diff_1_day_min_mean_magn diff_1_day_mean_max_magn diff_1_day_mean_min_magn diff_1_mean_magn diff_1_max_magn diff_1_min_magn diff_1_max_min_magn diff_1_lastday_mean_magn diff_1_lastday_max_magn diff_1_lastday_min_magn diff_1_lastday_max_min_magn average_day_max_mean_sound average_day_min_mean_sound average_day_mean_max_sound average_day_mean_min_sound average_mean_sound average_max_sound average_min_sound average_max_min_sound average_lastday_mean_sound average_lastday_max_sound average_lastday_min_sound average_lastday_max_min_sound diff_1_day_max_mean_sound diff_1_day_min_mean_sound diff_1_day_mean_max_sound diff_1_day_mean_min_sound diff_1_mean_sound diff_1_max_sound diff_1_min_sound diff_1_max_min_sound diff_1_lastday_mean_sound diff_1_lastday_max_sound diff_1_lastday_min_sound diff_1_lastday_max_min_sound
feature_infos=[6.5235806222688:8.1055020508402276] [-1.8034251024931187:-0.56668109201692907] [-0.49091409576164058:3.9568747332322474] [-0.70006249806855347:3.2912322214751364] [-0.5813365703738349:3.6000427100826577] [7.5820091936973562:8.1201591936973561] [-1.8074808363026429:-0.99414580630264282] [9.1058749999999993:9.9140720024999993] [-0.57269153870980893:3.2912322214751364] [6.6927921936973558:8.1201591936973561] [-1.8074668173026427:0.10312919369735707] [8.006479999999998:9.8975919999999995] [4.2360457142857113:8.3612215476190492] [-8.2193978095238176:-3.8034321428571465] [-7.5201444788443463e-05:0.016558778625954205] [-0.027125693023255841:-0.00040241066021104763] [-0.0014561441249556274:0.0011034253990284519] [5.0174975000000011:9.3568499999999997] [-9.4153444666666637:-4.7410491666666665] [10.2929025:18.772194466666665] [-0.01473357351299495:0.0086718032407407421] [3.2313999999999985:9.3568499999999997] [-8.3962613000000008:-2.6619429999999973] [6.0064339999999952:16.330138166666664] [0.042822559138937413:2.425104053900843] [-0.035620160384872784:-0.027847046099158581] [-0.026148953863926842:0.50047012949242764] [-0.028199650509276742:0.31022755547160857] [-0.026547799075348745:0.37989871166148681] [0.060203699615127136:3.3443198396151272] [-0.035620160384872861:-0.027970520384872858] [0.095823859999995903:3.3797382463000001] [-0.028178069284297943:0.35459797775897911] [-0.0075637503848728594:3.1862898396151267] [-0.035620160384872861:-0.027868180384872862] [0.027274809000000001:3.2216785448] [0.015527453857141341:1.9393517414285704] [-2.0019055314285716:-0.017790555951771894] [1.1894291739004645e-06:0.0018843035019455261] [-0.0014926582407407405:3.9703248259858486e-06] [-0.00015132609990076084:0.00018082031767041666] [0.027207666666666658:3.3649085566666668] [-3.2183018025000001:-0.025375450000000001] [0.052583116666666666:6.5832103591666673] [-0.00022121609826589639:0.00028652424284928563] [0.0098071030000000045:3.2182835619999999] [-3.2183018025000001:-0.0091742339999999999] [0.018981337000000004:6.4365853645000008]
tree_sizes=1143 1046 643 447 444 1081 850 639 449 446 1098 848 642 450 442 1134 848 740 452 447 1118 1035 744 451 447 1031 848 748 451 448

Tree=0
num_leaves=10
num_cat=0
split_feature=6 6 26 42 26 26 5 16 8
split_gain=23.8989 24.2058 22.7551 18.7598 5.89877 18.9104 3.82804 1.99893 0.0166357
threshold=-1.8034305283859757 -1.7961923263026425 0.29143548209611475 -0.074736944999999999 0.014294720636012691 -0.010281005298257023 7.8914096936973577 9.0701355873739885e-05 -0.073225986220360348
decision_type=2 2 2 2 2 2 2 2 2
left_child=-1 3 -3 4 5 7 -7 -2 -6
right_child=1 2 -4 -5 8 6 -8 -9 -10
leaf_value=0.89031863819999113 -2.2788810625901235 0.89430758421689405 -1.8117912483565557 0.86590793755028928 -1.9372416687489209 -0.69314718055994529 0.86590793755029061 -1.3073204089064019 -2.2797967312659786
leaf_weight=7.8124999999999991 9.0624999999999982 10.312499999999998 4.3749999999999991 3.1250000000000027 3.1250000000000009 3.1250000000000027 3.125 3.1249999999999991 9.6874999999999964
leaf_count=25 29 33 14 10 10 10 10 10 31
internal_value=-0.693147 -0.98737 0.0837824 -1.44696 -1.68197 -1.31248 0.0925671 -2.03738 -2.20529
internal_weight=0 49.0625 14.6875 34.375 31.25 18.4375 6.25 12.1875 12.8125
internal_count=182 157 47 110 100 59 20 39 41
is_linear=0
shrinkage=1


Tree=1
num_leaves=9
num_cat=0
split_feature=36 17 10 27 41 2 45 16
split_gain=22.364 28.5166 12.5215 10.563 16.6193 15.3209 16.6193 0.121818
threshold=1.8486564442857139 6.1835809166666662 -1.7937497021359758 0.012192073338770971 0.42757470328599406 -0.17095953399794547 0.044551070000000005 3.9589362137960092e-05
decision_type=2 2 2 2 2 2 2 2
left_child=1 2 7 5 -5 6 -3 -1
right_child=-2 3 -4 4 -6 -7 -8 -9
leaf_value=1.5184600903807148 1.5252085131211215 1.1697208691855729 -1.2640457811054404 -2.3459316345297445 1.1697208691855725 -2.3826338045170226 -2.3459316345297441 0.81423322525002395
leaf_weight=2.5118520855903625 2.7630372941493979 2.7630372941493979 3.5165929198265058 2.5118520855903617 2.7630372941493988 23.611409604549412 2.5118520855903625 2.7630372941493988
leaf_count=10 11 11 14 10 11 94 10 11
internal_value=-1.27825 -1.3847 0.214899 -1.7994 -0.508095 -2.03786 -0.508095 1.18208
internal_weight=0 42.9527 8.79148 34.1612 5.27489 28.8863 5.27489 5.27489
internal_count=182 171 35 136 21 115 21 21
is_linear=0
shrinkage=1


Tree=2
num_leaves=5
num_cat=0
split_feature=1 22 3 22
split_gain=40.1516 39.8316 5.92793 11.6612
threshold=-1.7973806982669285 -5.0834833333333327 0.34115250436090255 -6.0291908333333319
decision_type=2 2 2 2
left_child=1 -1 -2 -4
right_child=2 -3 3 -5
leaf_value=-3.0130081084750326 -3.0678516944874339 3.6821839516326174 -3.0304707529159787 0.72929455562700074
leaf_weight=1.5161479711532595 16.045899361371998 2.0215306282043484 2.1478762924671178 1.263456642627715
leaf_count=12 127 16 17 10
internal_value=-2.17073 0.82713 -2.81257 -1.63063
internal_weight=0 3.53768 19.4572 3.41133
internal_count=182 28 154 27
is_linear=0
shrinkage=1


Tree=3
num_leaves=3
num_cat=0
split_feature=30 12
split_gain=51.7899 40.9324
threshold=-0.035432837434872855 7.1672094357142893
decision_type=2 2
left_child=-1 -2
right_child=1 -3
leaf_value=-3.5060573392809191 5.6758453781546852 -3.4061389529577517
leaf_weight=12.937001660466192 1.1463166028261191 0.81879757344722737
leaf_count=158 14 10
internal_value=-2.65257 1.94207
internal_weight=0 1.96511
internal_count=182 24
is_linear=0
shrinkage=1


Tree=4
num_leaves=3
num_cat=0
split_feature=3 3
split_gain=40.311 99.5747
threshold=-0.39955892574513902 -0.42933603640826379
decision_type=2 2
left_child=1 -1
right_child=-2 -3
leaf_value=-4.0478784624220729 -4.1159543552326987 12.557739096123569
leaf_weight=1.0665060281753538 6.5323494225740433 0.48881526291370381
leaf_count=24 147 11
internal_value=-3.2992 1.47122
internal_weight=0 1.55532
internal_count=182 35
is_linear=0
shrinkage=1


Tree=5
num_leaves=10
num_cat=0
split_feature=43 15 12 12 7 1 13 1 0
split_gain=17.4745 16.369 13.6927 10.6948 22.6148 7.65584 7.37739 5.11482 1.37022
threshold=0.4269349458333333 -0.0010725762757440133 6.8488275357142916 5.6058077976190495 9.6698284750000045 -1.7860126396359763 -6.2123160714285737 -1.7963745603859764 7.8002641222688167
decision_type=2 2 2 2 2 2 2 2 2
left_child=2 3 -1 5 8 -2 -4 -6 -5
right_child=1 -3 6 4 7 -7 -8 -9 -10
leaf_value=0.89350237014608724 -2.2112631225889303 0.87264229312426533 -0.026480513893278657 -1.3956561411334216 -0.69314718055994529 -0.69314718055994529 -1.9691328436423827 0.88514091964882324 -2.2674046063025193
leaf_weight=9.6875000000000018 13.75 3.7499999999999991 4.375 3.4375000000000018 3.125 4.3750000000000009 3.4374999999999991 5.9374999999999982 5
leaf_count=31 44 12 14 11 10 14 11 19 16
internal_value=-0.693147 -1.09771 0.101725 -1.30842 -0.747278 -1.84583 -0.877567 0.34389 -1.92437
internal_weight=0 39.375 17.5 35.625 17.5 18.125 7.8125 9.0625 8.4375
internal_count=182 126 56 114 56 58 25 29 27
is_linear=0
shrinkage=1


Tree=6
num_leaves=7
num_cat=0
split_feature=20 17 33 21 44 12
split_gain=32.8027 24.9308 15.8011 12.1142 7.9509 4.00879
threshold=-0.00088490803964767697 6.1835809166666662 0.547916506281794 5.0122510000000018 -2.1077662008274044e-05 6.4487163214285745
decision_type=2 2 2 2 2 2
left_child=2 3 -1 -2 -3 -4
right_child=1 4 5 -5 -6 -7
leaf_value=-1.4367889969150909 -1.6386315179052595 -0.60771735049216913 -0.10088474046078288 1.0549271325380418 -2.3825371380234586 1.3892031697582075
leaf_weight=4.2701485455036154 2.7630372941493979 2.7630372941493979 3.0142225027084333 4.0189633369445801 23.109039187431339 5.7772597968578339
leaf_count=17 11 11 12 16 92 23
internal_value=-1.27825 -1.74174 0.130174 -0.0443734 -2.19014 0.893518
internal_weight=0 32.6541 13.0616 6.782 25.8721 8.79148
internal_count=182 130 52 27 103 35
is_linear=0
shrinkage=1


Tree=7
num_leaves=5
num_cat=0
split_feature=11 5 9 18
split_gain=23.559 55.5858 11.229 4.67804
threshold=9.870648150000001 8.0840316936973586 7.3914586936973574 -5.7121649999999979
decision_type=2 2 2 2
left_child=2 -2 -1 -3
right_child=1 3 -4 -5
leaf_value=-0.03205528078587383 4.5852522214459226 -3.042892895352558 -3.0678049244177767 -0.79340511719872708
leaf_weight=1.2634566426277221 1.5161479711532582 3.0322959423065181 15.919553697109221 1.2634566426277163
leaf_count=10 12 24 126 10
internal_value=-2.17073 -0.515693 -2.83613 -2.36154
internal_weight=0 5.8119 17.183 4.29575
internal_count=182 46 136 34
is_linear=0
shrinkage=1


Tree=8
num_leaves=3
num_cat=0
split_feature=30 44
split_gain=51.7899 48.3533
threshold=-0.035432837434872855 1.9186944459489857e-06
decision_type=2 2
left_child=-1 -2
right_child=1 -3
leaf_value=-3.5060573392809191 -3.4153616820971688 6.3509832433568523
leaf_weight=12.937001660466192 0.900677330791951 1.0644368454813955
leaf_count=158 11 13
internal_value=-2.65257 1.94207
internal_weight=0 1.96511
internal_count=182 24
is_linear=0
shrinkage=1


Tree=9
num_leaves=3
num_cat=0
split_feature=14 12
split_gain=59.5882 93.7888
threshold=0.00090880149260057165 5.6058077976190495
decision_type=2 2
left_child=1 -1
right_child=-2 -3
leaf_value=14.0577251743712 -4.1168337750132045 -4.0021216969343749
leaf_weight=0.44437751173973061 6.9767269343137741 0.66656626760959625
leaf_count=10 157 15
internal_value=-3.2992 3.61516
internal_weight=0 1.11094
internal_count=182 25
is_linear=0
shrinkage=1


Tree=10
num_leaves=10
num_cat=0
split_feature=10 20 19 32 10 22 44 5 11
split_gain=23.345 12.3346 12.5725 11.4095 8.36239 17.188 6.32027 10.4539 2.13433
threshold=-1.7946288963026427 7.5295839918095703e-05 12.5813635 0.21841976997392318 -1.7969504996359758 -4.4032804166666661 -1.9569256218643064e-06 8.071700860364027 9.8766091583333342
decision_type=2 2 2 2 2 2 2 2 2
left_child=1 4 -3 6 5 -1 7 -2 -6
right_child=3 2 -4 -5 8 -7 -8 -9 -10
leaf_value=0.86957683377697192 -1.4694629700336281 -1.4213793705335602 0.87941218619467187 -1.3598138472266119 -2.2819523474060155 -2.0546247531193123 0.89534839466129357 0.87264229312426489 -1.3073204089064019
leaf_weight=3.4375 3.7500000000000062 4.6874999999999982 4.6875 4.3749999999999991 11.562500000000002 4.6874999999999982 11.249999999999998 3.75 3.1249999999999991
leaf_count=11 12 15 15 14 37 15 36 12 10
internal_value=-0.693147 -1.23444 -0.274049 0.0813944 -1.63136 -0.809355 0.421215 -0.302419 -2.08076
internal_weight=0 32.1875 9.375 23.125 22.8125 8.125 18.75 7.5 14.6875
internal_count=177 103 30 74 73 26 60 24 47
is_linear=0
shrinkage=1


Tree=11
num_leaves=7
num_cat=0
split_feature=44 46 18 18 24 12
split_gain=22.174 26.9452 22.3627 13.9079 6.52821 4.01616
threshold=0.00013075366076415753 -0.036490216666666665 -6.5465546666666654 -6.3789506666666664 1.122085196757985 5.7214634928571444
decision_type=2 2 2 2 2 2
left_child=1 4 5 -4 -1 -3
right_child=-2 2 3 -5 -6 -7
leaf_value=-2.3820446262338431 1.0194572380126601 -0.82359550047410934 1.3976676687154013 -1.1789605843286264 -0.87733855558040263 -2.3652256061518608
leaf_weight=20.848372310400013 3.7677781283855429 2.5118520855903652 6.028445005416871 3.2654077112674686 3.2654077112674704 4.7725189626216888
leaf_count=83 15 10 24 13 13 19
internal_value=-1.27825 -1.50089 -0.522463 0.503093 -2.17581 -1.82734
internal_weight=0 40.692 16.5782 9.29385 24.1138 7.28437
internal_count=177 162 66 37 96 29
is_linear=0
shrinkage=1


Tree=12
num_leaves=5
num_cat=0
split_feature=1 13 3 3
split_gain=55.3182 35.4876 7.08866 18.1757
threshold=-1.7973806982669285 -4.5367566904761931 0.34115250436090255 0.49604516437026519
decision_type=2 2 2 2
left_child=1 -1 -2 -4
right_child=2 -3 3 -5
leaf_value=-1.3548432717751262 -3.0671799038390057 4.6207876367366056 1.4906443920398624 -3.0385644163564072
leaf_weight=2.2742219567298889 14.403405725955965 1.7688392996788049 1.2634566426277154 2.6532589495182037
leaf_count=18 114 14 10 21
internal_value=-2.17073 1.32274 -2.74197 -1.5624
internal_weight=0 4.04306 18.3201 3.91672
internal_count=177 32 145 31
is_linear=0
shrinkage=1


Tree=13
num_leaves=3
num_cat=0
split_feature=1 25
split_gain=29.5501 0.913913
threshold=-1.6806389491597855 -0.035403438849158454
decision_type=2 2
left_child=1 -1
right_child=-2 -3
leaf_value=-3.5055753073473097 1.336464647181153 -2.5514992133277477
leaf_weight=12.118204087018965 1.3919558748602874 0.98255708813667197
leaf_count=148 17 12
internal_value=-2.65257 -3.43011
internal_weight=0 13.1008
internal_count=177 160
is_linear=0
shrinkage=1


Tree=14
num_leaves=3
num_cat=0
split_feature=9 13
split_gain=35.8132 56.664
threshold=7.60613352703069 -5.8420420547619143
decision_type=2 2
left_child=1 -1
right_child=-2 -3
leaf_value=-4.0021216969343749 -4.1164084229810305 10.012233672717592
leaf_weight=0.66656626760959625 6.7545381784439087 0.44437751173973061
leaf_count=15 152 10
internal_value=-3.2992 1.89242
internal_weight=0 1.11094
internal_count=177 25
is_linear=0
shrinkage=1


Tree=15
num_leaves=10
num_cat=0
split_feature=10 23 39 26 47 46 14 46 26
split_gain=23.345 13.1681 16.5297 13.0646 10.6462 8.58319 12.4882 5.04033 0.613557
threshold=-1.7946288963026427 9.6610145833333352 -1.8186864738687206e-05 0.29143548209611475 0.074048201250000015 -0.024860321666666688 0.0019587190415615379 -0.049569830833333314 -1.0000000180025095e-35
decision_type=2 2 2 2 2 2 2 2 2
left_child=1 8 -3 5 -4 -2 -7 -6 -1
right_child=3 2 4 -5 7 6 -8 -9 -10
leaf_value=-1.6823944923879022 0.8967459195372357 0.87941218619467232 0.14575859451604123 -1.5320529556359332 -0.96354345095621552 -1.9372416687489209 0.86590793755029061 -2.2743746173830504 -2.276612999319882
leaf_weight=3.4375 12.812500000000004 4.6874999999999991 4.0625000000000062 4.0624999999999991 5.3125000000000018 3.1250000000000009 3.125 6.8749999999999964 7.8124999999999982
leaf_count=11 41 15 13 13 17 10 10 22 25
internal_value=-0.693147 -1.23444 -0.762236 0.0813944 -1.24223 0.429155 -0.542354 -1.71051 -2.10465
internal_weight=0 32.1875 20.9375 23.125 16.25 19.0625 6.25 12.1875 11.25
internal_count=177 103 67 74 52 61 20 39 36
is_linear=0
shrinkage=1


Tree=16
num_leaves=7
num_cat=0
split_feature=20 6 46 43 13 6
split_gain=35.379 26.1538 20.5341 22.5803 3.91772 2.97025
threshold=-0.00088490803964767697 -1.799202552358198 -0.032586643750000005 0.4269349458333333 -5.2429283333333387 -1.7966424713026428
decision_type=2 2 2 2 2 2
left_child=1 -1 -2 -4 -5 -3
right_child=2 5 3 4 -6 -7
leaf_value=-2.3526794433262443 -2.3822760717672429 1.5558756830226288 -2.3640241989064608 -0.43325290199830491 1.2593708807651807 0.31763860187934001
leaf_weight=3.0142225027084342 21.853113144636151 5.0237041711807242 4.5213337540626544 2.5118520855903625 3.5165929198265076 4.0189633369445792
leaf_count=12 87 20 18 10 14 16
internal_value=-1.27825 0.173885 -1.82919 -0.688428 0.575089 1.02285
internal_weight=0 12.0569 32.4029 10.5498 6.02845 9.04267
internal_count=177 48 129 42 24 36
is_linear=0
shrinkage=1


Tree=17
num_leaves=6
num_cat=0
split_feature=1 1 0 27 0
split_gain=55.3182 23.0002 19.0285 8.4116 16.8535
threshold=-1.7973806982669285 -1.7980152170883577 8.0798329436973919 -0.021217791133701595 8.0778074079830997
decision_type=2 2 2 2 2
left_child=1 2 -1 4 -2
right_child=3 -3 -4 -5 -6
leaf_value=-3.0076767192923848 -3.0304707529159769 4.5628070532614231 2.2519942284527241 -3.0674023215785295 1.4906443920398611
leaf_weight=1.3898023068904879 2.1478762924671222 1.3898023068904901 1.2634566426277158 14.908788383007046 1.2634566426277158
leaf_count=11 17 11 10 118 10
internal_value=-2.17073 1.32274 -0.48609 -2.74197 -1.34173
internal_weight=0 4.04306 2.65326 18.3201 3.41133
internal_count=177 32 21 145 27
is_linear=0
shrinkage=1


Tree=18
num_leaves=3
num_cat=0
split_feature=26 26
split_gain=39.5148 0.998352
threshold=0.29143548209611475 -0.013535969823992829
decision_type=2 2
left_child=1 -1
right_child=-2 -3
leaf_value=-2.4686682343316009 2.7617264665207011 -3.5058241683419293
leaf_weight=0.90067733079194923 1.0644368454813964 12.527602873742579
leaf_count=11 13 153
internal_value=-2.65257 -3.43213
internal_weight=0 13.4283
internal_count=177 164
is_linear=0
shrinkage=1


Tree=19
num_leaves=3
num_cat=0
split_feature=14 12
split_gain=43.4253 49.0558
threshold=0.00087397961469392021 6.2455064857142863
decision_type=2 2
left_child=1 -1
right_child=-2 -3
leaf_value=10.012233672717588 -4.1167508702790609 -3.95998175026648
leaf_weight=0.44437751173973072 6.932289183139801 0.48881526291370392
leaf_count=10 156 11
internal_value=-3.2992 2.98119
internal_weight=0 0.933193
internal_count=177 21
is_linear=0
shrinkage=1


Tree=20
num_leaves=10
num_cat=0
split_feature=27 12 42 7 5 47 33 40 2
split_gain=21.2219 19.1362 14.0223 8.96698 5.86507 5.30943 13.3954 3.91026 0.0116846
threshold=-0.01441245216655165 4.7268273214285736 -0.084304143333333428 9.6051577810000008 8.0834308603640252 0.081701014166666669 0.547916506281794 6.1227711280865021e-07 0.088023357290394663
decision_type=2 2 2 2 2 2 2 2 2
left_child=2 4 7 -3 -2 6 -5 8 -1
right_child=1 3 -4 5 -6 -7 -8 -9 -10
leaf_value=-1.9372416687489191 -2.2657065473145632 -1.206305075296787 0.14575859451604267 0.73596435063098042 -0.56411492249542916 0.89622973465966649 -1.6823944923879022 -1.0457307671860852 -2.2788810625901235
leaf_weight=3.1250000000000062 4.6874999999999982 3.7500000000000027 4.0624999999999991 6.5625000000000018 3.4375 12.187499999999998 3.4375 4.0624999999999991 9.0624999999999982
leaf_count=10 15 12 13 21 11 39 11 13 29
internal_value=-0.693147 -0.210919 -1.501 0.20921 -1.5433 0.451316 -0.101107 -1.91707 -2.20081
internal_weight=0 34.0625 20.3125 25.9375 8.125 22.1875 10 16.25 12.1875
internal_count=174 109 65 83 26 71 32 52 39
is_linear=0
shrinkage=1


Tree=21
num_leaves=9
num_cat=0
split_feature=36 3 27 27 12 19 7 18
split_gain=29.5526 26.6033 12.67 19.721 5.41065 4.5275 1.84939 0.256094
threshold=1.8486564442857139 -0.48349994050330097 0.012192073338770971 0.013830184312816718 7.5063694452381009 12.82394465 9.7990371333333339 -5.6573037499999987
decision_type=2 2 2 2 2 2 2 2
left_child=1 5 4 -4 7 -1 -5 -3
right_child=-2 2 3 6 -6 -7 -8 -9
leaf_value=1.5184600903807157 1.5356376744053872 -2.3823840104089875 1.5184600903807166 -1.2139380989499127 -0.82359550047410868 -0.43325290199830491 -2.3526794433262443 -1.9555890360539385
leaf_weight=2.5118520855903617 3.2654077112674704 22.355483561754227 2.5118520855903608 2.5118520855903625 2.5118520855903617 2.5118520855903625 3.0142225027084351 2.5118520855903688
leaf_count=10 13 89 10 10 10 10 12 10
internal_value=-1.27825 -1.56949 -1.8766 -0.779083 -2.20096 0.570402 -1.83017 -2.34273
internal_weight=0 40.4408 35.4171 8.03793 27.3792 5.0237 5.52607 24.8673
internal_count=174 161 141 32 109 20 22 99
is_linear=0
shrinkage=1


Tree=22
num_leaves=6
num_cat=0
split_feature=1 1 0 21 4
split_gain=47.273 39.2684 6.12285 3.89073 7.23938
threshold=-1.7973806982669285 -1.7980152170883577 8.0016398484592877 4.6246375000000004 0.48578561027572448
decision_type=2 2 2 2 2
left_child=1 2 -1 4 -2
right_child=3 -3 -4 -5 -6
leaf_value=-3.0076767192923848 -3.0278302816827942 4.6043462991158774 -0.032055280785863616 -3.0671799038390062 -0.032055280785863616
leaf_weight=1.3898023068904879 2.0215306282043488 1.6424936354160333 1.2634566426277158 14.403405725955961 1.2634566426277158
leaf_count=11 16 13 10 114 10
internal_value=-2.17073 0.836987 -1.59586 -2.8429 -1.87581
internal_weight=0 4.29575 2.65326 17.6884 3.28499
internal_count=174 34 21 140 26
is_linear=0
shrinkage=1


Tree=23
num_leaves=3
num_cat=0
split_feature=30 44
split_gain=51.4129 21.1038
threshold=-0.035432837434872855 3.5427090307412547e-05
decision_type=2 2
left_child=-1 -2
right_child=1 -3
leaf_value=-3.5056768345610507 -1.0113476116451621 5.6868882854290437
leaf_weight=12.28196360170841 1.1463166028261191 0.81879757344722737
leaf_count=150 14 10
internal_value=-2.65257 1.94207
internal_weight=0 1.96511
internal_count=174 24
is_linear=0
shrinkage=1


Tree=24
num_leaves=3
num_cat=0
split_feature=14 12
split_gain=64.9076 88.0173
threshold=0.00087397961469392021 5.9081053730158741
decision_type=2 2
left_child=1 -1
right_child=-2 -3
leaf_value=14.0577251743712 -4.1163199972952524 -3.9840350468674695
leaf_weight=0.44437751173973061 6.7101004272699356 0.57769076526165009
leaf_count=10 151 13
internal_value=-3.2992 4.25723
internal_weight=0 1.02207
internal_count=174 23
is_linear=0
shrinkage=1


Tree=25
num_leaves=9
num_cat=0
split_feature=42 9 3 30 39 43 5 21
split_gain=19.8361 21.0384 14.8001 8.23049 13.864 12.8715 5.75874 0.878943
threshold=-0.074736944999999999 8.0821275270306927 1.5625277340946093 -0.035620160384099576 -7.7027363600818985e-06 0.42870261414833333 8.0834308603640252 7.6587895349999995
decision_type=2 2 2 2 2 2 2 2
left_child=1 3 -3 5 -5 -1 7 -7
right_child=-2 2 -4 4 -6 6 -8 -9
leaf_value=-0.026480513893278546 0.88808025626315945 0.8920800921673272 -1.6222810388276621 0.87524187719081425 -1.6324611647288103 -2.2839354887973227 -0.96354345095621574 -1.6222810388276621
leaf_weight=4.3749999999999991 6.8749999999999991 8.7499999999999982 3.1249999999999991 4.0625 4.6875000000000018 14.062500000000005 5.3124999999999991 3.1249999999999991
leaf_count=14 22 28 10 13 15 45 17 10
internal_value=-0.693147 -0.923431 0.225092 -1.30842 -0.471556 -1.58266 -1.88827 -2.16958
internal_weight=0 47.5 11.875 35.625 8.75 26.875 22.5 17.1875
internal_count=174 152 38 114 28 86 72 55
is_linear=0
shrinkage=1


Tree=26
num_leaves=7
num_cat=0
split_feature=20 6 44 3 3 24
split_gain=32.57 20.8108 17.7634 12.704 7.64649 0.2556
threshold=-0.00088490803964767697 -1.799202552358198 -1.6065827720198053e-05 0.073045034636379597 -0.47652787882772984 0.25658476818655734
decision_type=2 2 2 2 2 2
left_child=1 -1 -2 -3 -4 -6
right_child=2 3 4 -5 5 -7
leaf_value=-2.3496068057763564 0.071875758326438 1.4255222728951604 -0.60771735049216991 -1.2139380989499127 -1.9555890360539396 -2.3823306529917243
leaf_weight=2.7630372941493979 4.0189633369445827 7.0331858396530134 2.7630372941494015 2.5118520855903625 2.5118520855903652 22.10429835319519
leaf_count=11 16 28 11 10 10 88
internal_value=-1.27825 0.0409128 -1.87496 0.740093 -2.1645 -2.34227
internal_weight=0 12.3081 31.3982 9.54504 27.3792 24.6162
internal_count=174 49 125 38 109 98
is_linear=0
shrinkage=1


Tree=27
num_leaves=6
num_cat=0
split_feature=1 1 5 16 11
split_gain=47.273 39.2684 6.12285 5.00915 6.12285
threshold=-1.7973806982669285 -1.7980152170883577 8.081112527030692 -0.00032744081377744736 9.8031526166666669
decision_type=2 2 2 2 2
left_child=1 2 -1 4 -2
right_child=3 -3 -4 -5 -6
leaf_value=-3.0076767192923848 -3.0076767192923821 4.6043462991158774 -0.032055280785863616 -3.0674555974364024 -0.032055280785863616
leaf_weight=1.3898023068904879 1.3898023068904923 1.6424936354160333 1.2634566426277158 15.035134047269818 1.2634566426277158
leaf_count=11 11 13 10 119 10
internal_value=-2.17073 0.836987 -1.59586 -2.8429 -1.59586
internal_weight=0 4.29575 2.65326 17.6884 2.65326
internal_count=174 34 21 140 21
is_linear=0
shrinkage=1


Tree=28
num_leaves=3
num_cat=0
split_feature=30 44
split_gain=51.4129 21.1038
threshold=-0.035432837434872855 3.5427090307412547e-05
decision_type=2 2
left_child=-1 -2
right_child=1 -3
leaf_value=-3.5056768345610507 -1.0113476116451621 5.6868882854290437
leaf_weight=12.28196360170841 1.1463166028261191 0.81879757344722737
leaf_count=150 14 10
internal_value=-2.65257 1.94207
internal_weight=0 1.96511
internal_count=174 24
is_linear=0
shrinkage=1


Tree=29
num_leaves=3
num_cat=0
split_feature=14 22
split_gain=64.9076 88.0173
threshold=0.00087397961469392021 -4.6049929166666663
decision_type=2 2
left_child=1 -1
right_child=-2 -3
leaf_value=-3.9840350468674695 -4.1163199972952524 14.0577251743712
leaf_weight=0.57769076526165009 6.7101004272699356 0.44437751173973061
leaf_count=13 151 10
internal_value=-3.2992 4.25723
internal_weight=0 1.02207
internal_count=174 23
is_linear=0
shrinkage=1


end of trees

feature_importances:
average_day_min_mean_magn=11
diff_1_day_max_mean_magn=10
average_day_mean_min_magn=9
average_day_mean_max_sound=7
diff_1_lastday_mean_sound=7
average_max_magn=6
average_min_magn=5
diff_1_day_mean_max_magn=5
average_day_mean_min_sound=5
average_min_sound=5
average_day_max_mean_magn=4
average_lastday_min_magn=4
diff_1_day_min_mean_magn=4
diff_1_min_magn=4
diff_1_lastday_mean_magn=4
diff_1_lastday_min_magn=4
diff_1_lastday_min_sound=4
average_max_min_magn=3
average_lastday_max_magn=3
average_lastday_max_min_magn=3
diff_1_mean_magn=3
diff_1_lastday_max_magn=3
diff_1_min_sound=3
diff_1_max_min_sound=3
average_day_mean_max_magn=2
diff_1_max_magn=2
diff_1_max_min_magn=2
average_day_max_mean_sound=2
average_lastday_max_sound=2
diff_1_day_max_mean_sound=2
diff_1_day_mean_min_sound=2
diff_1_lastday_max_min_sound=2
average_mean_magn=1
average_lastday_mean_magn=1
diff_1_day_mean_min_magn=1
diff_1_lastday_max_min_magn=1
average_day_min_mean_sound=1
average_lastday_mean_sound=1
diff_1_mean_sound=1
diff_1_max_sound=1
diff_1_lastday_max_sound=1

parameters:
[boosting: rf]
[objective: multiclass]
[metric: multi_logloss]
[tree_learner: serial]
[device_type: cpu]
[linear_tree: 0]
[data: ]
[valid: ]
[num_iterations: 5000]
[learning_rate: 0.05]
[num_leaves: 48]
[num_threads: -1]
[deterministic: 0]
[force_col_wise: 0]
[force_row_wise: 0]
[histogram_pool_size: -1]
[max_depth: -1]
[min_data_in_leaf: 10]
[min_sum_hessian_in_leaf: 0.001]
[bagging_fraction: 0.6]
[pos_bagging_fraction: 1]
[neg_bagging_fraction: 1]
[bagging_freq: 2]
[bagging_seed: 3]
[feature_fraction: 0.6]
[feature_fraction_bynode: 1]
[feature_fraction_seed: 2]
[extra_trees: 0]
[extra_seed: 6]
[early_stopping_round: 500]
[first_metric_only: 0]
[max_delta_step: 0]
[lambda_l1: 0.05]
[lambda_l2: 0.05]
[linear_lambda: 0]
[min_gain_to_split: 0]
[drop_rate: 0.1]
[max_drop: 50]
[skip_drop: 0.5]
[xgboost_dart_mode: 0]
[uniform_drop: 0]
[drop_seed: 4]
[top_rate: 0.2]
[other_rate: 0.1]
[min_data_per_group: 100]
[max_cat_threshold: 32]
[cat_l2: 10]
[cat_smooth: 10]
[max_cat_to_onehot: 4]
[top_k: 20]
[monotone_constraints: ]
[monotone_constraints_method: basic]
[monotone_penalty: 0]
[feature_contri: ]
[forcedsplits_filename: ]
[refit_decay_rate: 0.9]
[cegb_tradeoff: 1]
[cegb_penalty_split: 0]
[cegb_penalty_feature_lazy: ]
[cegb_penalty_feature_coupled: ]
[path_smooth: 0]
[interaction_constraints: ]
[verbosity: -1]
[saved_feature_importance_type: 0]
[max_bin: 200]
[max_bin_by_feature: ]
[min_data_in_bin: 3]
[bin_construct_sample_cnt: 200000]
[data_random_seed: 1]
[is_enable_sparse: 1]
[enable_bundle: 1]
[use_missing: 1]
[zero_as_missing: 0]
[feature_pre_filter: 1]
[pre_partition: 0]
[two_round: 0]
[header: 0]
[label_column: ]
[weight_column: ]
[group_column: ]
[ignore_column: ]
[categorical_feature: ]
[forcedbins_filename: ]
[objective_seed: 5]
[num_class: 5]
[is_unbalance: 0]
[scale_pos_weight: 1]
[sigmoid: 1]
[boost_from_average: 1]
[reg_sqrt: 0]
[alpha: 0.9]
[fair_c: 1]
[poisson_max_delta_step: 0.7]
[tweedie_variance_power: 1.5]
[lambdarank_truncation_level: 30]
[lambdarank_norm: 1]
[label_gain: ]
[eval_at: ]
[multi_error_top_k: 1]
[auc_mu_weights: ]
[num_machines: 1]
[local_listen_port: 12400]
[time_out: 120]
[machine_list_filename: ]
[machines: ]
[gpu_platform_id: -1]
[gpu_device_id: -1]
[gpu_use_dp: 0]
[num_gpu: 1]

end of parameters

pandas_categorical:[]
